{"learner":{"attributes":{"scikit_learn":"{\"_estimator_type\": \"classifier\"}"},"feature_names":[],"feature_types":[],"gradient_booster":{"model":{"cats":{"enc":[],"feature_segments":[],"sorted_idx":[]},"gbtree_model_param":{"num_parallel_tree":"1","num_trees":"800"},"iteration_indptr":[0,16,32,48,64,80,96,112,128,144,160,176,192,208,224,240,256,272,288,304,320,336,352,368,384,400,416,432,448,464,480,496,512,528,544,560,576,592,608,624,640,656,672,688,704,720,736,752,768,784,800],"tree_info":[0,1,2,3,4,5,6,7,8,9,10,11,12,13,14,15,0,1,2,3,4,5,6,7,8,9,10,11,12,13,14,15,0,1,2,3,4,5,6,7,8,9,10,11,12,13,14,15,0,1,2,3,4,5,6,7,8,9,10,11,12,13,14,15,0,1,2,3,4,5,6,7,8,9,10,11,12,13,14,15,0,1,2,3,4,5,6,7,8,9,10,11,12,13,14,15,0,1,2,3,4,5,6,7,8,9,10,11,12,13,14,15,0,1,2,3,4,5,6,7,8,9,10,11,12,13,14,15,0,1,2,3,4,5,6,7,8,9,10,11,12,13,14,15,0,1,2,3,4,5,6,7,8,9,10,11,12,13,14,15,0,1,2,3,4,5,6,7,8,9,10,11,12,13,14,15,0,1,2,3,4,5,6,7,8,9,10,11,12,13,14,15,0,1,2,3,4,5,6,7,8,9,10,11,12,13,14,15,0,1,2,3,4,5,6,7,8,9,10,11,12,13,14,15,0,1,2,3,4,5,6,7,8,9,10,11,12,13,14,15,0,1,2,3,4,5,6,7,8,9,10,11,12,13,14,15,0,1,2,3,4,5,6,7,8,9,10,11,12,13,14,15,0,1,2,3,4,5,6,7,8,9,10,11,12,13,14,15,0,1,2,3,4,5,6,7,8,9,10,11,12,13,14,15,0,1,2,3,4,5,6,7,8,9,10,11,12,13,14,15,0,1,2,3,4,5,6,7,8,9,10,11,12,13,14,15,0,1,2,3,4,5,6,7,8,9,10,11,12,13,14,15,0,1,2,3,4,5,6,7,8,9,10,11,12,13,14,15,0,1,2,3,4,5,6,7,8,9,10,11,12,13,14,15,0,1,2,3,4,5,6,7,8,9,10,11,12,13,14,15,0,1,2,3,4,5,6,7,8,9,10,11,12,13,14,15,0,1,2,3,4,5,6,7,8,9,10,11,12,13,14,15,0,1,2,3,4,5,6,7,8,9,10,11,12,13,14,15,0,1,2,3,4,5,6,7,8,9,10,11,12,13,14,15,0,1,2,3,4,5,6,7,8,9,10,11,12,13,14,15,0,1,2,3,4,5,6,7,8,9,10,11,12,13,14,15,0,1,2,3,4,5,6,7,8,9,10,11,12,13,14,15,0,1,2,3,4,5,6,7,8,9,10,11,12,13,14,15,0,1,2,3,4,5,6,7,8,9,10,11,12,13,14,15,0,1,2,3,4,5,6,7,8,9,10,11,12,13,14,15,0,1,2,3,4,5,6,7,8,9,10,11,12,13,14,15,0,1,2,3,4,5,6,7,8,9,10,11,12,13,14,15,0,1,2,3,4,5,6,7,8,9,10,11,12,13,14,15,0,1,2,3,4,5,6,7,8,9,10,11,12,13,14,15,0,1,2,3,4,5,6,7,8,9,10,11,12,13,14,15,0,1,2,3,4,5,6,7,8,9,10,11,12,13,14,15,0,1,2,3,4,5,6,7,8,9,10,11,12,13,14,15,0,1,2,3,4,5,6,7,8,9,10,11,12,13,14,15,0,1,2,3,4,5,6,7,8,9,10,11,12,13,14,15,0,1,2,3,4,5,6,7,8,9,10,11,12,13,14,15,0,1,2,3,4,5,6,7,8,9,10,11,12,13,14,15,0,1,2,3,4,5,6,7,8,9,10,11,12,13,14,15,0,1,2,3,4,5,6,7,8,9,10,11,12,13,14,15,0,1,2,3,4,5,6,7,8,9,10,11,12,13,14,15,0,1,2,3,4,5,6,7,8,9,10,11,12,13,14,15],"trees":[{"base_weights":[-3.0032475E-2,7.0977364E0,-5.3086784E-2,7.449114E-1,1.18706666E-1],"categories":[],"categories_nodes":[],"categories_segments":[],"categories_sizes":[],"default_left":[0,0,0,0,0],"id":0,"left_children":[1,3,-1,-1,-1],"loss_changes":[8.374671E2,2.3145447E1,0E0,0E0,0E0],"parents":[2147483647,0,0,1,1],"right_children":[2,4,-1,-1,-1],"split_conditions":[5.26081E-1,5.5828404E-1,-5.3086784E-2,7.449114E-1,1.18706666E-1],"split_indices":[4895,9,0,0,0],"split_type":[0,0,0,0,0],"sum_hessian":[2.3253973E2,1.4402008E1,2.1813773E2,1.3348203E1,1.0538055E0],"tree_param":{"num_deleted":"0","num_feature":"7800","num_nodes":"5","size_leaf_vector":"1"}},{"base_weights":[-1.9947542E-2,3.4527228E0,-5.3074915E-2,-4.273028E-1,6.5017323E0,-4.9353693E-2,2.1326464E-2,7.06849E0,-3.0021358E-2,7.001657E-2,7.470991E-1],"categories":[],"categories_nodes":[],"categories_segments":[],"categories_sizes":[],"default_left":[0,0,0,0,0,0,0,0,0,0,0],"id":1,"left_children":[1,3,-1,5,7,-1,-1,9,-1,-1,-1],"loss_changes":[4.2523477E2,3.6644824E2,0E0,7.189789E-1,6.871991E1,0E0,0E0,3.5748962E1,0E0,0E0,0E0],"parents":[2147483647,0,0,1,1,3,3,4,4,7,7],"right_children":[2,4,-1,6,8,-1,-1,10,-1,-1,-1],"split_conditions":[1.3182973E0,3.3515194E-1,-5.3074915E-2,5.29426E-1,1.5656829E0,-4.9353693E-2,2.1326464E-2,1.7056797E-1,-3.0021358E-2,7.001657E-2,7.470991E-1],"split_indices":[7321,4111,0,3,5,0,0,6,0,0,0],"split_type":[0,0,0,0,0,0,0,0,0,0,0],"sum_hessian":[2.3769168E2,2.9740732E1,2.0795094E2,1.3465292E1,1.627544E1,1.2411487E1,1.0538055E0,1.4987455E1,1.2879845E0,1.0538055E0,1.393365E1],"tree_param":{"num_deleted":"0","num_feature":"7800","num_nodes":"11","size_leaf_vector":"1"}},{"base_weights":[-1.2097149E-2,2.1899402E0,-5.304238E-2,-4.4693935E-1,6.6181207E0,-5.1436275E-2,7.020687E-2,7.26062E0,-3.1111866E-2,2.1649586E-1,7.47992E-1],"categories":[],"categories_nodes":[],"categories_segments":[],"categories_sizes":[],"default_left":[0,0,0,0,0,0,0,0,0,0,0],"id":2,"left_children":[1,3,-1,5,7,-1,-1,9,-1,-1,-1],"loss_changes":[2.7174188E2,5.326588E2,0E0,2.6364026E0,7.791919E1,0E0,0E0,1.2316895E0,0E0,0E0,0E0],"parents":[2147483647,0,0,1,1,3,3,4,4,7,7],"right_children":[2,4,-1,6,8,-1,-1,10,-1,-1,-1],"split_conditions":[2.0411816E0,1.2175447E0,-5.304238E-2,1.236456E0,2.3219342E0,-5.1436275E-2,7.020687E-2,1.0545944E0,-3.1111866E-2,2.1649586E-1,7.47992E-1],"split_indices":[864,4979,0,2,10,0,0,1,0,0,0],"split_type":[0,0,0,0,0,0,0,0,0,0,0],"sum_hessian":[2.3606528E2,4.4364395E1,1.9170088E2,2.8369864E1,1.5994532E1,2.7319128E1,1.0507357E0,1.4593551E1,1.400981E0,1.0507357E0,1.3542815E1],"tree_param":{"num_deleted":"0","num_feature":"7800","num_nodes":"11","size_leaf_vector":"1"}},{"base_weights":[1.4559909E-2,1.6396803E0,-5.304351E-2,-4.972927E-1,6.425242E0,-5.2052718E-2,2.1209035E-2,7.1525483E0,-3.4025025E-2,1.1844353E-1,7.476874E-1],"categories":[],"categories_nodes":[],"categories_segments":[],"categories_sizes":[],"default_left":[0,0,0,0,0,0,0,0,0,0,0],"id":3,"left_children":[1,3,-1,5,7,-1,-1,9,-1,-1,-1],"loss_changes":[2.1184956E2,6.174879E2,0E0,8.101225E-1,9.402905E1,0E0,0E0,2.3765442E1,0E0,0E0,0E0],"parents":[2147483647,0,0,1,1,3,3,4,4,7,7],"right_children":[2,4,-1,6,8,-1,-1,10,-1,-1,-1],"split_conditions":[2.9210365E0,1.9758273E0,-5.304351E-2,2.0626242E0,3.1123993E0,-5.2052718E-2,2.1209035E-2,1.7989212E0,-3.4025025E-2,1.1844353E-1,7.476874E-1],"split_indices":[6258,1260,0,0,486,0,0,4,0,0,0],"split_type":[0,0,0,0,0,0,0,0,0,0,0],"sum_hessian":[2.3721158E2,5.906803E1,1.7814355E2,4.1453312E1,1.7614721E1,4.0396427E1,1.0568833E0,1.585325E1,1.7614721E0,1.0568833E0,1.4796366E1],"tree_param":{"num_deleted":"0","num_feature":"7800","num_nodes":"11","size_leaf_vector":"1"}},{"base_weights":[2.6741458E-2,1.2002832E0,-5.3020597E-2,-4.7397333E-1,6.465079E0,-5.2434284E-2,1.1825558E-1,7.143151E0,-3.31982E-2,1.1825558E-1,7.464899E-1],"categories":[],"categories_nodes":[],"categories_segments":[],"categories_sizes":[],"default_left":[0,0,0,0,0,0,0,0,0,0,0],"id":4,"left_children":[1,3,-1,5,7,-1,-1,9,-1,-1,-1],"loss_changes":[1.5642426E2,6.819564E2,0E0,5.5736E0,8.8334045E1,0E0,0E0,2.3782776E1,0E0,0E0,0E0],"parents":[2147483647,0,0,1,1,3,3,4,4,7,7],"right_children":[2,4,-1,6,8,-1,-1,10,-1,-1,-1],"split_conditions":[3.6955261E0,2.8174996E0,-5.3020597E-2,2.8222117E0,3.779441E0,-5.2434284E-2,1.1825558E-1,2.6380534E0,-3.31982E-2,1.1825558E-1,7.464899E-1],"split_indices":[4113,7777,0,0,245,0,0,23,0,0,0],"split_type":[0,0,0,0,0,0,0,0,0,0,0],"sum_hessian":[2.3735315E2,7.6018906E1,1.6133424E2,5.836746E1,1.765145E1,5.730837E1,1.0590869E0,1.600398E1,1.6474686E0,1.0590869E0,1.4944893E1],"tree_param":{"num_deleted":"0","num_feature":"7800","num_nodes":"11","size_leaf_vector":"1"}},{"base_weights":[-2.5991598E-2,8.197128E-1,-5.297969E-2,-4.8543322E-1,6.6489344E0,-5.260245E-2,1.185563E-1,7.263636E-1,-3.00468E-2],"categories":[],"categories_nodes":[],"categories_segments":[],"categories_sizes":[],"default_left":[0,0,0,0,0,0,0,0,0],"id":5,"left_children":[1,3,-1,5,7,-1,-1,-1,-1],"loss_changes":[1.0165302E2,6.809537E2,0E0,5.6236763E0,7.208771E1,0E0,0E0,0E0,0E0],"parents":[2147483647,0,0,1,1,3,3,4,4],"right_children":[2,4,-1,6,8,-1,-1,-1,-1],"split_conditions":[4.528894E0,3.599762E0,-5.297969E-2,3.7320967E0,4.599971E0,-5.260245E-2,1.185563E-1,7.263636E-1,-3.00468E-2],"split_indices":[7789,544,0,4,219,0,0,0,0],"split_type":[0,0,0,0,0,0,0,0,0],"sum_hessian":[2.3656343E2,8.808088E1,1.4848256E2,7.2716576E1,1.5364308E1,7.166101E1,1.0555632E0,1.4074176E1,1.2901328E0],"tree_param":{"num_deleted":"0","num_feature":"7800","num_nodes":"9","size_leaf_vector":"1"}},{"base_weights":[-5.6428775E-2,5.5373615E-1,-5.2916586E-2,-5.047195E-1,6.6142716E0,-5.27102E-2,7.026126E-2,7.1348314E0,-2.7306376E-2,1.6782889E-1,7.437885E-1],"categories":[],"categories_nodes":[],"categories_segments":[],"categories_sizes":[],"default_left":[0,0,0,0,0,0,0,0,0,0,0],"id":6,"left_children":[1,3,-1,5,7,-1,-1,9,-1,-1,-1],"loss_changes":[6.838165E1,6.675041E2,0E0,2.7773342E0,5.7393494E1,0E0,0E0,1.1353882E1,0E0,0E0,0E0],"parents":[2147483647,0,0,1,1,3,3,4,4,7,7],"right_children":[2,4,-1,6,8,-1,-1,10,-1,-1,-1],"split_conditions":[5.28646E0,4.4005623E0,-5.2916586E-2,4.4801064E0,5.477536E0,-5.27102E-2,7.026126E-2,4.2789974E0,-2.7306376E-2,1.6782889E-1,7.437885E-1],"split_indices":[462,5737,0,5,32,0,0,1,0,0,0],"split_type":[0,0,0,0,0,0,0,0,0,0,0],"sum_hessian":[2.3505202E2,1.0253634E2,1.3251567E2,8.80716E1,1.446474E1,8.7021736E1,1.0498601E0,1.341488E1,1.0498601E0,1.0498601E0,1.2365019E1],"tree_param":{"num_deleted":"0","num_feature":"7800","num_nodes":"11","size_leaf_vector":"1"}},{"base_weights":[2.246514E-3,5.197409E-1,-5.2870106E-2,-5.0873667E-1,6.4473796E0,-5.2803993E-2,7.0098124E-2,7.265316E0,-3.4752183E-2,2.1626215E-1,7.4803776E-1],"categories":[],"categories_nodes":[],"categories_segments":[],"categories_sizes":[],"default_left":[0,0,0,0,0,0,0,0,0,0,0],"id":7,"left_children":[1,3,-1,5,7,-1,-1,9,-1,-1,-1],"loss_changes":[6.519832E1,7.3586E2,0E0,2.7829437E0,1.01674866E2,0E0,0E0,1.3468018E0,0E0,0E0,0E0],"parents":[2147483647,0,0,1,1,3,3,4,4,7,7],"right_children":[2,4,-1,6,8,-1,-1,10,-1,-1,-1],"split_conditions":[6.1266847E0,5.2229548E0,-5.2870106E-2,5.313023E0,6.323132E0,-5.2803993E-2,7.0098124E-2,5.197524E0,-3.4752183E-2,2.1626215E-1,7.4803776E-1],"split_indices":[4471,5375,0,5,1403,0,0,1,0,0,0],"split_type":[0,0,0,0,0,0,0,0,0,0,0],"sum_hessian":[2.3528972E2,1.1916512E2,1.161246E2,1.023253E2,1.683982E1,1.0127281E2,1.0524888E0,1.496873E1,1.8710912E0,1.0524888E0,1.3916241E1],"tree_param":{"num_deleted":"0","num_feature":"7800","num_nodes":"11","size_leaf_vector":"1"}},{"base_weights":[4.8974574E-2,-5.2904572E-2,6.0779953E-1,6.4565463E0,-5.1880294E-1,-3.22734E-2,7.0372252E0,2.10916E-2,-5.2835E-2,7.4991983E-1,-2.7452806E-2],"categories":[],"categories_nodes":[],"categories_segments":[],"categories_sizes":[],"default_left":[0,0,0,0,0,0,0,0,0,0,0],"id":8,"left_children":[1,-1,3,5,7,-1,9,-1,-1,-1,-1],"loss_changes":[7.825138E1,0E0,8.146928E2,8.085199E1,8.371544E-1,0E0,6.431421E1,0E0,0E0,0E0,0E0],"parents":[2147483647,0,0,2,2,3,3,4,4,6,6],"right_children":[2,-1,4,6,8,-1,10,-1,-1,-1,-1],"split_conditions":[5.905854E0,-5.2904572E-2,6.9349046E0,5.7371387E0,6.7781754E0,-3.22734E-2,7.0104814E0,2.10916E-2,-5.2835E-2,7.4991983E-1,-2.7452806E-2],"split_indices":[3919,0,7570,1262,7,0,36,0,0,0,0],"split_type":[0,0,0,0,0,0,0,0,0,0,0],"sum_hessian":[2.4025974E2,1.1812771E2,1.22132034E2,1.8961676E1,1.0317036E2,1.531067E0,1.7430609E1,1.0599694E0,1.0211039E2,1.637064E1,1.0599694E0],"tree_param":{"num_deleted":"0","num_feature":"7800","num_nodes":"11","size_leaf_vector":"1"}},{"base_weights":[5.0546112E-3,-5.2932173E-2,6.9431174E-1,6.310073E0,-5.154468E-1,-3.3994284E-2,7.0353513E0,2.129291E-2,-5.2703436E-2,7.4849343E-1,2.129291E-2],"categories":[],"categories_nodes":[],"categories_segments":[],"categories_sizes":[],"default_left":[0,0,0,0,0,0,0,0,0,0,0],"id":9,"left_children":[1,-1,3,5,7,-1,9,-1,-1,-1,-1],"loss_changes":[8.693171E1,0E0,7.034805E2,9.086542E1,8.357563E-1,0E0,4.9279175E1,0E0,0E0,0E0,0E0],"parents":[2147483647,0,0,2,2,3,3,4,4,6,6],"right_children":[2,-1,4,6,8,-1,10,-1,-1,-1,-1],"split_conditions":[6.7223616E0,-5.2932173E-2,7.6408663E0,6.5676646E0,7.5046387E0,-3.3994284E-2,7.7919197E0,2.129291E-2,-5.2703436E-2,7.4849343E-1,2.129291E-2],"split_indices":[1588,0,3159,237,5,0,51,0,0,0,0],"split_type":[0,0,0,0,0,0,0,0,0,0,0],"sum_hessian":[2.3402266E2,1.3195268E2,1.0206998E2,1.7343693E1,8.472628E1,1.7578067E0,1.5585886E1,1.054684E0,8.36716E1,1.4531202E1,1.054684E0],"tree_param":{"num_deleted":"0","num_feature":"7800","num_nodes":"11","size_leaf_vector":"1"}},{"base_weights":[-2.5089655E-2,-5.297483E-2,7.970626E-1,6.4059258E0,-4.732204E-1,-3.3994284E-2,7.209494E0,1.6730076E-1,-5.261608E-2,7.433653E-1,2.1597004E-1],"categories":[],"categories_nodes":[],"categories_segments":[],"categories_sizes":[],"default_left":[0,0,0,0,0,0,0,0,0,0,0],"id":10,"left_children":[1,-1,3,5,7,-1,9,-1,-1,-1,-1],"loss_changes":[9.963637E1,0E0,6.5389496E2,9.426471E1,9.448948E0,0E0,1.1282959E0,0E0,0E0,0E0,0E0],"parents":[2147483647,0,0,2,2,3,3,4,4,6,6],"right_children":[2,-1,4,6,8,-1,10,-1,-1,-1,-1],"split_conditions":[7.4672832E0,-5.297483E-2,8.398202E0,7.4055142E0,8.277129E0,-3.3994284E-2,8.607468E0,1.6730076E-1,-5.261608E-2,7.433653E-1,2.1597004E-1],"split_indices":[4663,0,2162,653,2,0,4,0,0,0,0],"split_type":[0,0,0,0,0,0,0,0,0,0,0],"sum_hessian":[2.381242E2,1.4777295E2,9.0351265E1,1.5937448E1,7.441382E1,1.7578067E0,1.4179641E1,1.054684E0,7.335913E1,1.3124956E1,1.054684E0],"tree_param":{"num_deleted":"0","num_feature":"7800","num_nodes":"11","size_leaf_vector":"1"}},{"base_weights":[-2.6835881E-2,-5.3002834E-2,1.0515294E0,6.669825E0,-4.914968E-1,-2.8764173E-2,7.2216177E0,7.001657E-2,-5.2434515E-2,7.444522E-1,2.160869E-1],"categories":[],"categories_nodes":[],"categories_segments":[],"categories_sizes":[],"default_left":[0,0,0,0,0,0,0,0,0,0,0],"id":11,"left_children":[1,-1,3,5,7,-1,9,-1,-1,-1,-1],"loss_changes":[1.2969626E2,0E0,6.62607E2,6.525238E1,2.7392063E0,0E0,1.1558228E0,0E0,0E0,0E0,0E0],"parents":[2147483647,0,0,2,2,3,3,4,4,6,6],"right_children":[2,-1,4,6,8,-1,10,-1,-1,-1,-1],"split_conditions":[8.344168E0,-5.3002834E-2,9.141514E0,8.082954E0,9.16859E0,-2.8764173E-2,9.410272E0,7.001657E-2,-5.2434515E-2,7.444522E-1,2.160869E-1],"split_indices":[1469,0,5640,115,9,0,7,0,0,0,0],"split_type":[0,0,0,0,0,0,0,0,0,0,0],"sum_hessian":[2.3698914E2,1.6193477E2,7.505437E1,1.5455813E1,5.9598553E1,1.170895E0,1.4284919E1,1.0538055E0,5.8544746E1,1.32311125E1,1.0538055E0],"tree_param":{"num_deleted":"0","num_feature":"7800","num_nodes":"11","size_leaf_vector":"1"}},{"base_weights":[1.510403E-2,-5.302151E-2,1.5202984E0,6.54213E0,-5.001075E-1,-3.216672E-2,7.182877E0,2.1376789E-2,-5.214575E-2,7.508342E-1,1.1881947E-1],"categories":[],"categories_nodes":[],"categories_segments":[],"categories_sizes":[],"default_left":[0,0,0,0,0,0,0,0,0,0,0],"id":12,"left_children":[1,-1,3,5,7,-1,9,-1,-1,-1,-1],"loss_changes":[1.9619516E2,0E0,6.4820703E2,8.282654E1,8.164835E-1,0E0,2.3831726E1,0E0,0E0,0E0,0E0],"parents":[2147483647,0,0,2,2,3,3,4,4,6,6],"right_children":[2,-1,4,6,8,-1,10,-1,-1,-1,-1],"split_conditions":[9.093153E0,-5.302151E-2,1.003644E1,8.974963E0,9.948425E0,-3.216672E-2,1.0152869E1,2.1376789E-2,-5.214575E-2,7.508342E-1,1.1881947E-1],"split_indices":[1435,0,7063,64,0,0,3,0,0,0,0],"split_type":[0,0,0,0,0,0,0,0,0,0,0],"sum_hessian":[2.3704387E2,1.7447926E2,6.2564613E1,1.7307594E1,4.525702E1,1.5202616E0,1.5787333E1,1.0524888E0,4.420453E1,1.4734843E1,1.0524888E0],"tree_param":{"num_deleted":"0","num_feature":"7800","num_nodes":"11","size_leaf_vector":"1"}},{"base_weights":[-2.2993661E-2,-5.305469E-2,2.0399914E0,6.5603714E0,-4.5196846E-1,-2.738274E-2,7.0384927E0,6.993502E-2,-5.1561482E-2,7.4487317E-1,6.993502E-2],"categories":[],"categories_nodes":[],"categories_segments":[],"categories_sizes":[],"default_left":[0,0,0,0,0,0,0,0,0,0,0],"id":13,"left_children":[1,-1,3,5,7,-1,9,-1,-1,-1,-1],"loss_changes":[2.4837553E2,0E0,5.305908E2,5.6527344E1,2.6416888E0,0E0,3.550116E1,0E0,0E0,0E0,0E0],"parents":[2147483647,0,0,2,2,3,3,4,4,6,6],"right_children":[2,-1,4,6,8,-1,10,-1,-1,-1,-1],"split_conditions":[9.883755E0,-5.305469E-2,1.0793753E1,9.760485E0,1.0801943E1,-2.738274E-2,1.100824E1,6.993502E-2,-5.1561482E-2,7.4487317E-1,6.993502E-2],"split_indices":[3422,0,1994,57,5,0,12,0,0,0,0],"split_type":[0,0,0,0,0,0,0,0,0,0,0],"sum_hessian":[2.3517532E2,1.8933606E2,4.5839256E1,1.5709618E1,3.0129639E1,1.0551236E0,1.4654494E1,1.0551236E0,2.9074516E1,1.359937E1,1.0551236E0],"tree_param":{"num_deleted":"0","num_feature":"7800","num_nodes":"11","size_leaf_vector":"1"}},{"base_weights":[3.9205435E-3,-5.2118516E-1,3.457874E0,-5.3076275E-2,6.9962196E-2,6.777093E0,-4.346072E-1,7.1313863E0,6.9962196E-2,2.129291E-2,-4.9649194E-2,1.1863148E-1,7.468905E-1],"categories":[],"categories_nodes":[],"categories_segments":[],"categories_sizes":[],"default_left":[0,0,0,0,0,0,0,0,0,0,0,0,0],"id":14,"left_children":[1,3,5,-1,-1,7,9,11,-1,-1,-1,-1,-1],"loss_changes":[4.357121E2,2.8096352E0,4.125484E2,0E0,0E0,3.1985168E1,7.2809315E-1,2.3479797E1,0E0,0E0,0E0,0E0,0E0],"parents":[2147483647,0,0,1,1,2,2,5,5,6,6,7,7],"right_children":[2,4,6,-1,-1,8,10,12,-1,-1,-1,-1,-1],"split_conditions":[1.0799591E1,1.0914144E1,1.1611504E1,-5.3076275E-2,6.9962196E-2,1.17828455E1,1.1520763E1,1.0687329E1,6.9962196E-2,2.129291E-2,-4.9649194E-2,1.1863148E-1,7.468905E-1],"split_indices":[2594,8,7361,0,0,6,3,3,0,0,0,0,0],"split_type":[0,0,0,0,0,0,0,0,0,0,0,0,0],"sum_hessian":[2.382414E2,2.0753838E2,3.0703024E1,2.0648369E2,1.054684E0,1.6171822E1,1.4531202E1,1.5117138E1,1.054684E0,1.054684E0,1.3476518E1,1.054684E0,1.4062453E1],"tree_param":{"num_deleted":"0","num_feature":"7800","num_nodes":"13","size_leaf_vector":"1"}},{"base_weights":[2.0150369E-2,-5.0855374E-1,7.299047E-1,-5.3101916E-2,2.1561961E-1],"categories":[],"categories_nodes":[],"categories_segments":[],"categories_sizes":[],"default_left":[0,0,0,0,0],"id":15,"left_children":[1,3,-1,-1,-1],"loss_changes":[9.181089E2,1.4461945E1,0E0,0E0,0E0],"parents":[2147483647,0,0,1,1],"right_children":[2,4,-1,-1,-1],"split_conditions":[1.1611504E1,1.1741137E1,7.299047E-1,-5.3101916E-2,2.1561961E-1],"split_indices":[7361,5,0,0,0],"split_type":[0,0,0,0,0],"sum_hessian":[2.3660553E2,2.2145056E2,1.5154972E1,2.2039323E2,1.0573237E0],"tree_param":{"num_deleted":"0","num_feature":"7800","num_nodes":"5","size_leaf_vector":"1"}},{"base_weights":[-2.0727001E-2,3.6197324E0,-5.2835543E-2,3.805879E-1,-2.9635677E-2],"categories":[],"categories_nodes":[],"categories_segments":[],"categories_sizes":[],"default_left":[0,0,0,0,0],"id":16,"left_children":[1,3,-1,-1,-1],"loss_changes":[4.416259E2,2.2446991E1,0E0,0E0,0E0],"parents":[2147483647,0,0,1,1],"right_children":[2,4,-1,-1,-1],"split_conditions":[5.352175E-1,5.219511E-1,-5.2835543E-2,3.805879E-1,-2.9635677E-2],"split_indices":[456,95,0,0,0],"split_type":[0,0,0,0,0],"sum_hessian":[2.3694005E2,2.8245642E1,2.0869441E2,2.6990808E1,1.2548344E0],"tree_param":{"num_deleted":"0","num_feature":"7800","num_nodes":"5","size_leaf_vector":"1"}},{"base_weights":[3.0896368E-3,2.2813265E0,-5.2817594E-2,-4.304298E-1,3.5194736E0,-4.935926E-2,2.2871524E-2,3.7130806E0,-3.1176126E-2,6.562567E-2,3.809156E-1],"categories":[],"categories_nodes":[],"categories_segments":[],"categories_sizes":[],"default_left":[0,0,0,0,0,0,0,0,0,0,0],"id":17,"left_children":[1,3,-1,5,7,-1,-1,9,-1,-1,-1],"loss_changes":[2.8980008E2,1.5353136E2,0E0,7.408638E-1,2.42948E1,0E0,0E0,6.2431946E0,0E0,0E0,0E0],"parents":[2147483647,0,0,1,1,3,3,4,4,7,7],"right_children":[2,4,-1,6,8,-1,-1,10,-1,-1,-1],"split_conditions":[1.2690699E0,3.7663198E-1,-5.2817594E-2,4.8488742E-1,1.5218153E0,-4.935926E-2,2.2871524E-2,2.5466925E-1,-3.1176126E-2,6.562567E-2,3.809156E-1],"split_indices":[1818,4895,0,21,686,0,0,0,0,0,0],"split_type":[0,0,0,0,0,0,0,0,0,0,0],"sum_hessian":[2.3743964E2,4.4275967E1,1.9316367E2,1.408335E1,3.0192617E1,1.308102E1,1.0023304E0,2.8769619E1,1.4229984E0,1.115287E0,2.7654331E1],"tree_param":{"num_deleted":"0","num_feature":"7800","num_nodes":"11","size_leaf_vector":"1"}},{"base_weights":[-1.7655186E-2,1.6105517E0,-5.278268E-2,-4.7766417E-1,3.5673494E0,-5.1196482E-2,2.2925667E-2,3.7612755E0,-3.0302245E-2,6.631764E-2,3.8634965E-1],"categories":[],"categories_nodes":[],"categories_segments":[],"categories_sizes":[],"default_left":[0,0,0,0,0,0,0,0,0,0,0],"id":18,"left_children":[1,3,-1,5,7,-1,-1,9,-1,-1,-1],"loss_changes":[1.9738977E2,2.333753E2,0E0,8.037982E-1,2.3196594E1,0E0,0E0,6.3239746E0,0E0,0E0,0E0],"parents":[2147483647,0,0,1,1,3,3,4,4,7,7],"right_children":[2,4,-1,6,8,-1,-1,10,-1,-1,-1],"split_conditions":[2.0982666E0,1.1410064E0,-5.278268E-2,1.3051344E0,2.2175653E0,-5.1196482E-2,2.2925667E-2,9.8895437E-1,-3.0302245E-2,6.631764E-2,3.8634965E-1],"split_indices":[3287,5765,0,5780,127,0,0,2,0,0,0],"split_type":[0,0,0,0,0,0,0,0,0,0,0],"sum_hessian":[2.3560522E2,5.569581E1,1.7990942E2,2.7308825E1,2.8386984E1,2.6308107E1,1.0007174E0,2.7059357E1,1.3276281E0,1.1034635E0,2.5955893E1],"tree_param":{"num_deleted":"0","num_feature":"7800","num_nodes":"11","size_leaf_vector":"1"}},{"base_weights":[1.5566045E-3,1.2321227E0,-5.2780714E-2,-4.7071975E-1,3.5059607E0,-5.1808875E-2,7.235752E-2,3.7513936E0,-3.3795837E-2,6.5635756E-2,3.852285E-1],"categories":[],"categories_nodes":[],"categories_segments":[],"categories_sizes":[],"default_left":[0,0,0,0,0,0,0,0,0,0,0],"id":19,"left_children":[1,3,-1,5,7,-1,-1,9,-1,-1,-1],"loss_changes":[1.5399321E2,2.7696732E2,0E0,2.7248354E0,3.0104462E1,0E0,0E0,6.4690857E0,0E0,0E0,0E0],"parents":[2147483647,0,0,1,1,3,3,4,4,7,7],"right_children":[2,4,-1,6,8,-1,-1,10,-1,-1,-1],"split_conditions":[2.923621E0,1.9237747E0,-5.2780714E-2,2.115453E0,2.983883E0,-5.1808875E-2,7.235752E-2,1.8209443E0,-3.3795837E-2,6.5635756E-2,3.852285E-1],"split_indices":[7276,4095,0,7435,2363,0,0,13,0,0,0],"split_type":[0,0,0,0,0,0,0,0,0,0,0],"sum_hessian":[2.3439896E2,7.0104805E1,1.6429414E2,4.053886E1,2.9565947E1,3.9536915E1,1.0019451E0,2.7814096E1,1.7518497E0,1.1149992E0,2.6699099E1],"tree_param":{"num_deleted":"0","num_feature":"7800","num_nodes":"11","size_leaf_vector":"1"}},{"base_weights":[1.9296546E-2,9.77904E-1,-5.2762248E-2,-5.03903E-1,3.5015142E0,-5.2150417E-2,2.2914961E-2,3.7035983E0,-3.2218676E-2,-2.8130291E-2,3.863953E-1],"categories":[],"categories_nodes":[],"categories_segments":[],"categories_sizes":[],"default_left":[0,0,0,0,0,0,0,0,0,0,0],"id":20,"left_children":[1,3,-1,5,7,-1,-1,9,-1,-1,-1],"loss_changes":[1.2560625E2,3.2719675E2,0E0,8.382349E-1,2.6167969E1,0E0,0E0,2.0754395E1,0E0,0E0,0E0],"parents":[2147483647,0,0,1,1,3,3,4,4,7,7],"right_children":[2,4,-1,6,8,-1,-1,10,-1,-1,-1],"split_conditions":[3.7081306E0,2.6849465E0,-5.2762248E-2,2.837567E0,3.6586764E0,-5.2150417E-2,2.2914961E-2,2.4906328E0,-3.2218676E-2,-2.8130291E-2,3.863953E-1],"split_indices":[1751,2655,0,4859,582,0,0,96,0,0,0],"split_type":[0,0,0,0,0,0,0,0,0,0,0],"sum_hessian":[2.3759412E2,8.602555E1,1.5156856E2,5.470458E1,3.1320972E1,5.3703697E1,1.000884E0,2.9778574E1,1.5423987E0,1.1227757E0,2.8655798E1],"tree_param":{"num_deleted":"0","num_feature":"7800","num_nodes":"11","size_leaf_vector":"1"}},{"base_weights":[3.8451944E-3,7.325232E-1,-5.2709013E-2,-5.2383162E-2,3.4790864E0,3.6704092E0,-3.118552E-2,-2.807535E-2,3.8340625E-1],"categories":[],"categories_nodes":[],"categories_segments":[],"categories_sizes":[],"default_left":[0,0,0,0,0,0,0,0,0],"id":21,"left_children":[1,3,-1,-1,5,7,-1,-1,-1],"loss_changes":[9.105878E1,3.4414944E2,0E0,0E0,2.3822906E1,2.0374054E1,0E0,0E0,0E0],"parents":[2147483647,0,0,1,1,4,4,5,5],"right_children":[2,4,-1,-1,6,8,-1,-1,-1],"split_conditions":[4.566803E0,3.5451295E0,-5.2709013E-2,-5.2383162E-2,4.675254E0,3.310641E0,-3.118552E-2,-2.807535E-2,3.8340625E-1],"split_indices":[3806,4398,0,0,96,14,0,0,0],"split_type":[0,0,0,0,0,0,0,0,0],"sum_hessian":[2.3336842E2,9.820629E1,1.3516212E2,6.793857E1,3.0267721E1,2.8843817E1,1.4239062E0,1.11871E0,2.7725105E1],"tree_param":{"num_deleted":"0","num_feature":"7800","num_nodes":"9","size_leaf_vector":"1"}},{"base_weights":[-6.7646004E-2,4.516225E-1,-5.2641343E-2,-5.2443743E-2,3.4781063E0,3.686234E0,-3.0124918E-2,-2.9328076E-2,3.901967E-1],"categories":[],"categories_nodes":[],"categories_segments":[],"categories_sizes":[],"default_left":[0,0,0,0,0,0,0,0,0],"id":22,"left_children":[1,3,-1,-1,5,7,-1,-1,-1],"loss_changes":[5.5064228E1,3.223169E2,0E0,0E0,2.2024506E1,2.2844147E1,0E0,0E0,0E0],"parents":[2147483647,0,0,1,1,4,4,5,5],"right_children":[2,4,-1,-1,6,8,-1,-1,-1],"split_conditions":[5.323882E0,4.3029575E0,-5.2641343E-2,-5.2443743E-2,5.418182E0,4.1947355E0,-3.0124918E-2,-2.9328076E-2,3.901967E-1],"split_indices":[437,7441,0,0,47,117,0,0,0],"split_type":[0,0,0,0,0,0,0,0,0],"sum_hessian":[2.2914728E2,1.0749345E2,1.21653824E2,8.190522E1,2.5588228E1,2.4275997E1,1.3122301E0,1.2298645E0,2.3046133E1],"tree_param":{"num_deleted":"0","num_feature":"7800","num_nodes":"9","size_leaf_vector":"1"}},{"base_weights":[-1.9812142E-2,4.2303792E-1,-5.2598227E-2,-4.9505937E-1,3.549734E0,-5.254209E-2,1.2184308E-1,3.7981088E0,-3.2954175E-2,1.1276968E-1,3.8694403E-1],"categories":[],"categories_nodes":[],"categories_segments":[],"categories_sizes":[],"default_left":[0,0,0,0,0,0,0,0,0,0,0],"id":23,"left_children":[1,3,-1,5,7,-1,-1,9,-1,-1,-1],"loss_changes":[5.2614082E1,3.6120053E2,0E0,5.7214375E0,2.875415E1,0E0,0E0,7.6168823E-1,0E0,0E0,0E0],"parents":[2147483647,0,0,1,1,3,3,4,4,7,7],"right_children":[2,4,-1,6,8,-1,-1,10,-1,-1,-1],"split_conditions":[6.105108E0,5.1814346E0,-5.2598227E-2,5.249577E0,6.1884627E0,-5.254209E-2,1.2184308E-1,4.975769E0,-3.2954175E-2,1.1276968E-1,3.8694403E-1],"split_indices":[4809,6899,0,428,308,0,0,4,0,0,0],"split_type":[0,0,0,0,0,0,0,0,0,0,0],"sum_hessian":[2.3272664E2,1.2421486E2,1.0851179E2,9.667088E1,2.7543974E1,9.5669075E1,1.0018096E0,2.5906225E1,1.6377497E0,1.1113217E0,2.4794903E1],"tree_param":{"num_deleted":"0","num_feature":"7800","num_nodes":"11","size_leaf_vector":"1"}},{"base_weights":[3.8048424E-2,-5.262049E-2,5.0738156E-1,3.477406E0,-5.056432E-1,-2.9339204E-2,3.6304865E0,7.243511E-2,-5.256591E-2,3.7475237E-1,1.8854486E-2],"categories":[],"categories_nodes":[],"categories_segments":[],"categories_sizes":[],"default_left":[0,0,0,0,0,0,0,0,0,0,0],"id":24,"left_children":[1,-1,3,5,7,-1,9,-1,-1,-1,-1],"loss_changes":[6.3638824E1,0E0,3.9634058E2,2.0392181E1,2.8098316E0,0E0,1.2285095E1,0E0,0E0,0E0,0E0],"parents":[2147483647,0,0,2,2,3,3,4,4,6,6],"right_children":[2,-1,4,6,8,-1,10,-1,-1,-1,-1],"split_conditions":[5.905854E0,-5.262049E-2,6.8652954E0,5.856659E0,6.6408014E0,-2.9339204E-2,7.0475597E0,7.243511E-2,-5.256591E-2,3.7475237E-1,1.8854486E-2],"split_indices":[3919,0,7108,472,6915,0,10,0,0,0,0],"split_type":[0,0,0,0,0,0,0,0,0,0,0],"sum_hessian":[2.3829906E2,1.0815233E2,1.3014673E2,3.248202E1,9.766471E1,1.2314471E0,3.1250572E1,1.0004019E0,9.666431E1,3.0137032E1,1.1135412E0],"tree_param":{"num_deleted":"0","num_feature":"7800","num_nodes":"11","size_leaf_vector":"1"}},{"base_weights":[-1.341017E-3,-5.2661873E-2,5.7150024E-1,3.4372044E0,-5.127133E-1,-3.211735E-2,3.641159E0,2.2863382E-2,-5.2451283E-2,3.783983E-1,1.5547258E-2],"categories":[],"categories_nodes":[],"categories_segments":[],"categories_sizes":[],"default_left":[0,0,0,0,0,0,0,0,0,0,0],"id":25,"left_children":[1,-1,3,5,7,-1,9,-1,-1,-1,-1],"loss_changes":[7.151279E1,0E0,3.549866E2,2.5189178E1,8.490257E-1,0E0,1.4248993E1,0E0,0E0,0E0,0E0],"parents":[2147483647,0,0,2,2,3,3,4,4,6,6],"right_children":[2,-1,4,6,8,-1,10,-1,-1,-1,-1],"split_conditions":[6.691743E0,-5.2661873E-2,7.6464133E0,6.637623E0,7.498215E0,-3.211735E-2,7.822311E0,2.2863382E-2,-5.2451283E-2,3.783983E-1,1.5547258E-2],"split_indices":[1492,0,4579,303,7130,0,9,0,0,0,0],"split_type":[0,0,0,0,0,0,0,0,0,0,0],"sum_hessian":[2.356622E2,1.2297689E2,1.1268532E2,3.0335304E1,8.235001E1,1.5318774E0,2.8803427E1,1.0022677E0,8.134775E1,2.758747E1,1.215958E0],"tree_param":{"num_deleted":"0","num_feature":"7800","num_nodes":"11","size_leaf_vector":"1"}},{"base_weights":[6.7918557E-3,-5.271333E-2,7.634371E-1,3.523643E0,-5.2315623E-2,3.688958E0,-2.9092152E-2,-2.7744984E-2,3.8504055E-1],"categories":[],"categories_nodes":[],"categories_segments":[],"categories_sizes":[],"default_left":[0,0,0,0,0,0,0,0,0],"id":26,"left_children":[1,-1,3,5,-1,7,-1,-1,-1],"loss_changes":[9.458715E1,0E0,3.4581656E2,2.0573792E1,0E0,2.0095032E1,0E0,0E0,0E0],"parents":[2147483647,0,0,2,2,3,3,5,5],"right_children":[2,-1,4,6,-1,8,-1,-1,-1],"split_conditions":[7.541751E0,-5.271333E-2,8.51809E0,8.637795E0,-5.2315623E-2,7.3944445E0,-2.9092152E-2,-2.7744984E-2,3.8504055E-1],"split_indices":[5494,0,2108,542,0,1,0,0,0],"split_type":[0,0,0,0,0,0,0,0,0],"sum_hessian":[2.3213518E2,1.3627579E2,9.585939E1,2.9923649E1,6.593574E1,2.8712252E1,1.2113976E0,1.0948834E0,2.7617369E1],"tree_param":{"num_deleted":"0","num_feature":"7800","num_nodes":"9","size_leaf_vector":"1"}},{"base_weights":[-4.8256787E-3,-5.273677E-2,9.0877295E-1,3.4941661E0,-5.040162E-1,-3.3831015E-2,3.7407992E0,2.2893962E-2,-5.21429E-2,3.8926408E-1,1.582056E-2],"categories":[],"categories_nodes":[],"categories_segments":[],"categories_sizes":[],"default_left":[0,0,0,0,0,0,0,0,0,0,0],"id":27,"left_children":[1,-1,3,5,7,-1,9,-1,-1,-1,-1],"loss_changes":[1.1247347E2,0E0,3.148816E2,3.0016785E1,8.380146E-1,0E0,1.4975616E1,0E0,0E0,0E0,0E0],"parents":[2147483647,0,0,2,2,3,3,4,4,6,6],"right_children":[2,-1,4,6,8,-1,10,-1,-1,-1,-1],"split_conditions":[8.281243E0,-5.273677E-2,9.25277E0,8.223503E0,9.074679E0,-3.3831015E-2,9.358244E0,2.2893962E-2,-5.21429E-2,3.8926408E-1,1.582056E-2],"split_indices":[4491,0,5862,1039,482,0,11,0,0,0,0],"split_type":[0,0,0,0,0,0,0,0,0,0,0],"sum_hessian":[2.335951E2,1.4887009E2,8.4725006E1,2.9417665E1,5.530734E1,1.7561897E0,2.7661476E1,1.0015429E0,5.4305794E1,2.6453741E1,1.2077343E0],"tree_param":{"num_deleted":"0","num_feature":"7800","num_nodes":"11","size_leaf_vector":"1"}},{"base_weights":[-1.370829E-2,-5.276495E-2,1.1521158E0,3.468279E0,-4.956415E-1,-3.2127585E-2,3.681005E0,2.3358738E-2,-5.1840056E-2,3.7942722E-1,6.0272094E-2],"categories":[],"categories_nodes":[],"categories_segments":[],"categories_sizes":[],"default_left":[0,0,0,0,0,0,0,0,0,0,0],"id":28,"left_children":[1,-1,3,5,7,-1,9,-1,-1,-1,-1],"loss_changes":[1.423841E2,0E0,2.7921982E2,2.5649109E1,8.407345E-1,0E0,7.7608643E0,0E0,0E0,0E0,0E0],"parents":[2147483647,0,0,2,2,3,3,4,4,6,6],"right_children":[2,-1,4,6,8,-1,10,-1,-1,-1,-1],"split_conditions":[9.052735E0,-5.276495E-2,1.003644E1,9.028028E0,9.946393E0,-3.2127585E-2,1.0203625E1,2.3358738E-2,-5.1840056E-2,3.7942722E-1,6.0272094E-2],"split_indices":[5942,0,7063,664,666,0,19,0,0,0,0],"split_type":[0,0,0,0,0,0,0,0,0,0,0],"sum_hessian":[2.356229E2,1.639116E2,7.171129E1,2.9350307E1,4.2360985E1,1.5328822E0,2.7817425E1,1.0017023E0,4.1359283E1,2.6605854E1,1.2115712E0],"tree_param":{"num_deleted":"0","num_feature":"7800","num_nodes":"11","size_leaf_vector":"1"}},{"base_weights":[1.8828942E-2,-5.278938E-2,1.6562318E0,3.5213132E0,-5.124096E-2,3.682352E0,-2.9195124E-2,1.874789E-2,3.8066527E-1],"categories":[],"categories_nodes":[],"categories_segments":[],"categories_sizes":[],"default_left":[0,0,0,0,0,0,0,0,0],"id":29,"left_children":[1,-1,3,5,-1,7,-1,-1,-1],"loss_changes":[2.1143767E2,0E0,2.409235E2,2.0671173E1,0E0,1.2619232E1,0E0,0E0,0E0],"parents":[2147483647,0,0,2,2,3,3,5,5],"right_children":[2,-1,4,6,-1,8,-1,-1,-1],"split_conditions":[9.883755E0,-5.278938E-2,1.092595E1,1.0961528E1,-5.124096E-2,9.776693E0,-2.9195124E-2,1.874789E-2,3.8066527E-1],"split_indices":[3422,0,2035,2266,0,67,0,0,0],"split_type":[0,0,0,0,0,0,0,0,0],"sum_hessian":[2.3421236E2,1.7609312E2,5.8119236E1,3.0911173E1,2.7208063E1,2.9691593E1,1.2195811E0,1.1059047E0,2.8585688E1],"tree_param":{"num_deleted":"0","num_feature":"7800","num_nodes":"9","size_leaf_vector":"1"}},{"base_weights":[-6.9240863E-3,-5.2814264E-2,2.32954E0,3.6119354E0,-4.2648727E-1,1.5286441E-2,3.7572026E0,2.2908267E-2,-4.9214855E-2,3.9140213E-1,1.561858E-2],"categories":[],"categories_nodes":[],"categories_segments":[],"categories_sizes":[],"default_left":[0,0,0,0,0,0,0,0,0,0,0],"id":30,"left_children":[1,-1,3,5,7,-1,9,-1,-1,-1,-1],"loss_changes":[2.8577014E2,0E0,1.5281111E2,1.4156097E1,7.362857E-1,0E0,1.5251862E1,0E0,0E0,0E0,0E0],"parents":[2147483647,0,0,2,2,3,3,4,4,6,6],"right_children":[2,-1,4,6,8,-1,10,-1,-1,-1,-1],"split_conditions":[1.0712382E1,-5.2814264E-2,1.1694989E1,1.0498261E1,1.1636952E1,1.5286441E-2,1.1920149E1,2.2908267E-2,-4.9214855E-2,3.9140213E-1,1.561858E-2],"split_indices":[7475,0,4582,13,4,0,30,0,0,0,0],"split_type":[0,0,0,0,0,0,0,0,0,0,0],"sum_hessian":[2.3264906E2,1.9084851E2,4.180054E1,2.8314898E1,1.3485643E1,1.223902E0,2.7090996E1,1.0011535E0,1.2484489E1,2.5877165E1,1.2138307E0],"tree_param":{"num_deleted":"0","num_feature":"7800","num_nodes":"11","size_leaf_vector":"1"}},{"base_weights":[1.6067205E-2,-5.2373695E-1,3.7316327E0,-5.285385E-2,2.2928486E-2,1.5583272E-2,3.8777676E-1],"categories":[],"categories_nodes":[],"categories_segments":[],"categories_sizes":[],"default_left":[0,0,0,0,0,0,0],"id":31,"left_children":[1,3,5,-1,-1,-1,-1],"loss_changes":[4.7252145E2,8.6504364E-1,1.5012024E1,0E0,0E0,0E0,0E0],"parents":[2147483647,0,0,1,1,2,2],"right_children":[2,4,6,-1,-1,-1,-1],"split_conditions":[1.1541174E1,1.1715829E1,1.1368718E1,-5.285385E-2,2.2928486E-2,1.5583272E-2,3.8777676E-1],"split_indices":[6912,2091,1,0,0,0,0],"split_type":[0,0,0,0,0,0,0],"sum_hessian":[2.3361751E2,2.0473262E2,2.8884886E1,2.0373166E2,1.0009531E0,1.215243E0,2.7669643E1],"tree_param":{"num_deleted":"0","num_feature":"7800","num_nodes":"7","size_leaf_vector":"1"}},{"base_weights":[-2.05305E-2,2.5757654E0,-5.2618254E-2,2.677904E-1,-2.911213E-2],"categories":[],"categories_nodes":[],"categories_segments":[],"categories_sizes":[],"default_left":[0,0,0,0,0],"id":32,"left_children":[1,3,-1,-1,-1],"loss_changes":[3.0999698E2,1.2051132E1,0E0,0E0,0E0],"parents":[2147483647,0,0,1,1],"right_children":[2,4,-1,-1,-1],"split_conditions":[4.800147E-1,5.6965756E-1,-5.2618254E-2,2.677904E-1,-2.911213E-2],"split_indices":[2608,296,0,0,0],"split_type":[0,0,0,0,0],"sum_hessian":[2.3409781E2,3.749319E1,1.9660463E2,3.6267025E1,1.2261635E0],"tree_param":{"num_deleted":"0","num_feature":"7800","num_nodes":"5","size_leaf_vector":"1"}},{"base_weights":[-1.8264545E-2,1.7825843E0,-5.259291E-2,-4.1865596E-1,2.5066185E0,-4.8742637E-2,2.1328958E-2,2.599236E0,-2.8265774E-2,1.6112346E-2,2.6735002E-1],"categories":[],"categories_nodes":[],"categories_segments":[],"categories_sizes":[],"default_left":[0,0,0,0,0,0,0,0,0,0,0],"id":33,"left_children":[1,3,-1,5,7,-1,-1,9,-1,-1,-1],"loss_changes":[2.1314189E2,8.2765045E1,0E0,6.927111E-1,1.0738678E1,0E0,0E0,6.3732758E0,0E0,0E0,0E0],"parents":[2147483647,0,0,1,1,3,3,4,4,7,7],"right_children":[2,4,-1,6,8,-1,-1,10,-1,-1,-1],"split_conditions":[1.2693089E0,3.7236175E-1,-5.259291E-2,5.98787E-1,1.6015395E0,-4.8742637E-2,2.1328958E-2,1.2549476E-1,-2.8265774E-2,1.6112346E-2,2.6735002E-1],"split_indices":[3961,2313,0,60,87,0,0,20,0,0,0],"split_type":[0,0,0,0,0,0,0,0,0,0,0],"sum_hessian":[2.311134E2,5.0271816E1,1.8084158E2,1.2547162E1,3.7724655E1,1.1521991E1,1.0251718E0,3.6578213E1,1.146441E0,1.1749171E0,3.5403297E1],"tree_param":{"num_deleted":"0","num_feature":"7800","num_nodes":"11","size_leaf_vector":"1"}},{"base_weights":[-2.3640068E-2,1.2973818E0,-5.2554946E-2,-4.7341055E-1,2.51036E0,-5.0888497E-2,2.2011513E-2,2.6563618E0,-3.3606123E-2,5.858767E-2,2.711764E-1],"categories":[],"categories_nodes":[],"categories_segments":[],"categories_sizes":[],"default_left":[0,0,0,0,0,0,0,0,0,0,0],"id":34,"left_children":[1,3,-1,5,7,-1,-1,9,-1,-1,-1],"loss_changes":[1.5377438E2,1.3835852E2,0E0,7.714238E-1,1.670929E1,0E0,0E0,2.5768127E0,0E0,0E0,0E0],"parents":[2147483647,0,0,1,1,3,3,4,4,7,7],"right_children":[2,4,-1,6,8,-1,-1,10,-1,-1,-1],"split_conditions":[2.1168654E0,1.1849109E0,-5.2554946E-2,1.2837515E0,2.1621232E0,-5.0888497E-2,2.2011513E-2,1.0117466E0,-3.3606123E-2,5.858767E-2,2.711764E-1],"split_indices":[551,5651,0,5343,1345,0,0,22,0,0,0],"split_type":[0,0,0,0,0,0,0,0,0,0,0],"sum_hessian":[2.2989722E2,6.2861454E1,1.6703577E2,2.5802635E1,3.705882E1,2.4800312E1,1.0023232E0,3.5314213E1,1.7446047E0,1.2219648E0,3.409225E1],"tree_param":{"num_deleted":"0","num_feature":"7800","num_nodes":"11","size_leaf_vector":"1"}},{"base_weights":[4.5533413E-3,1.0734622E0,-5.2559014E-2,-5.1524192E-2,2.5134745E0,-2.8822256E-2,2.6039548E0,2.6874077E-1,-2.6948282E-2],"categories":[],"categories_nodes":[],"categories_segments":[],"categories_sizes":[],"default_left":[0,0,0,0,0,0,0,0,0],"id":35,"left_children":[1,3,-1,-1,5,-1,7,-1,-1],"loss_changes":[1.3370242E2,1.8024733E2,0E0,0E0,1.1194946E1,0E0,1.0318939E1,0E0,0E0],"parents":[2147483647,0,0,1,1,4,4,6,6],"right_children":[2,4,-1,-1,6,-1,8,-1,-1],"split_conditions":[2.8457897E0,1.8435984E0,-5.2559014E-2,-5.1524192E-2,1.7182151E0,-2.8822256E-2,3.090769E0,2.6874077E-1,-2.6948282E-2],"split_indices":[6258,5282,0,0,148,0,48,0,0],"split_type":[0,0,0,0,0,0,0,0,0],"sum_hessian":[2.339463E2,7.722185E1,1.5672446E2,3.702069E1,4.0201157E1,1.1893017E0,3.9011856E1,3.797373E1,1.0381285E0],"tree_param":{"num_deleted":"0","num_feature":"7800","num_nodes":"9","size_leaf_vector":"1"}},{"base_weights":[1.8482164E-2,8.591796E-1,-5.2535404E-2,-4.641787E-1,2.54653E0,-5.190442E-2,1.1806246E-1,2.6923507E-1,-3.440082E-2],"categories":[],"categories_nodes":[],"categories_segments":[],"categories_sizes":[],"default_left":[0,0,0,0,0,0,0,0,0],"id":36,"left_children":[1,3,-1,5,7,-1,-1,-1,-1],"loss_changes":[1.08432816E2,2.0918112E2,0E0,5.4002934E0,1.8248932E1,0E0,0E0,0E0,0E0],"parents":[2147483647,0,0,1,1,3,3,4,4],"right_children":[2,4,-1,6,8,-1,-1,-1,-1],"split_conditions":[3.6828043E0,2.8280473E0,-5.2535404E-2,3.0126884E0,3.8212605E0,-5.190442E-2,1.1806246E-1,2.6923507E-1,-3.440082E-2],"split_indices":[1798,7203,0,156,319,0,0,0,0],"split_type":[0,0,0,0,0,0,0,0,0],"sum_hessian":[2.3517902E2,9.214909E1,1.4302994E2,5.2051193E1,4.0097897E1,5.1033314E1,1.0178788E0,3.8237476E1,1.8604207E0],"tree_param":{"num_deleted":"0","num_feature":"7800","num_nodes":"9","size_leaf_vector":"1"}},{"base_weights":[6.709881E-3,6.504945E-1,-5.247658E-2,-5.0688475E-1,2.5224142E0,-5.2143153E-2,2.1889577E-2,2.636438E0,-3.1753294E-2,1.7958486E-2,2.703953E-1],"categories":[],"categories_nodes":[],"categories_segments":[],"categories_sizes":[],"default_left":[0,0,0,0,0,0,0,0,0,0,0],"id":37,"left_children":[1,3,-1,5,7,-1,-1,9,-1,-1,-1],"loss_changes":[8.044388E1,2.3161476E2,0E0,8.165417E-1,1.4044769E1,0E0,0E0,6.03656E0,0E0,0E0,0E0],"parents":[2147483647,0,0,1,1,3,3,4,4,7,7],"right_children":[2,4,-1,6,8,-1,-1,10,-1,-1,-1],"split_conditions":[4.528894E0,3.5824502E0,-5.247658E-2,3.684867E0,4.5701714E0,-5.2143153E-2,2.1889577E-2,3.2121491E0,-3.1753294E-2,1.7958486E-2,2.703953E-1],"split_indices":[7789,3278,0,729,200,0,0,3,0,0,0],"split_type":[0,0,0,0,0,0,0,0,0,0,0],"sum_hessian":[2.331112E2,1.0531617E2,1.2779504E2,6.5529495E1,3.978667E1,6.451793E1,1.0115712E0,3.831979E1,1.4668787E0,1.1227603E0,3.719703E1],"tree_param":{"num_deleted":"0","num_feature":"7800","num_nodes":"11","size_leaf_vector":"1"}},{"base_weights":[-3.6720354E-2,4.5504162E-1,-5.242039E-2,-5.099344E-1,2.5145955E0,-5.2204866E-2,2.1987027E-2,2.620034E0,-2.9284058E-2,1.464167E-2,2.7034938E-1],"categories":[],"categories_nodes":[],"categories_segments":[],"categories_sizes":[],"default_left":[0,0,0,0,0,0,0,0,0,0,0],"id":38,"left_children":[1,3,-1,5,7,-1,-1,9,-1,-1,-1],"loss_changes":[5.5638527E1,2.309865E2,0E0,8.179531E-1,1.1732742E1,0E0,0E0,6.995758E0,0E0,0E0,0E0],"parents":[2147483647,0,0,1,1,3,3,4,4,7,7],"right_children":[2,4,-1,6,8,-1,-1,10,-1,-1,-1],"split_conditions":[5.3015623E0,4.263003E0,-5.242039E-2,4.553772E0,5.3398976E0,-5.2204866E-2,2.1987027E-2,4.212531E0,-2.9284058E-2,1.464167E-2,2.7034938E-1],"split_indices":[6624,1284,0,3497,6140,0,0,46,0,0,0],"split_type":[0,0,0,0,0,0,0,0,0,0,0],"sum_hessian":[2.3009726E2,1.145791E2,1.1551816E2,7.8534996E1,3.60441E1,7.7532684E1,1.0023139E0,3.4803734E1,1.2403668E0,1.2258497E0,3.3577885E1],"tree_param":{"num_deleted":"0","num_feature":"7800","num_nodes":"11","size_leaf_vector":"1"}},{"base_weights":[-1.6581006E-2,3.9630288E-1,-5.23717E-2,-5.230095E-2,2.4954245E0,2.62758E0,-3.2863192E-2,-2.9649032E-2,2.736661E-1],"categories":[],"categories_nodes":[],"categories_segments":[],"categories_sizes":[],"default_left":[0,0,0,0,0,0,0,0,0],"id":39,"left_children":[1,3,-1,-1,5,7,-1,-1,-1],"loss_changes":[4.8704147E1,2.4877309E2,0E0,0E0,1.5504837E1,1.2800415E1,0E0,0E0,0E0],"parents":[2147483647,0,0,1,1,4,4,5,5],"right_children":[2,4,-1,-1,6,8,-1,-1,-1],"split_conditions":[6.0699863E0,5.09366E0,-5.23717E-2,-5.230095E-2,6.115164E0,4.883304E0,-3.2863192E-2,-2.9649032E-2,2.736661E-1],"split_indices":[7745,6899,0,0,865,33,0,0,0],"split_type":[0,0,0,0,0,0,0,0,0],"sum_hessian":[2.3061087E2,1.2723845E2,1.0337242E2,8.900811E1,3.8230343E1,3.658774E1,1.6425995E0,1.2540164E0,3.5333725E1],"tree_param":{"num_deleted":"0","num_feature":"7800","num_nodes":"9","size_leaf_vector":"1"}},{"base_weights":[3.6510404E-2,-5.2387923E-2,4.632937E-1,2.4993932E0,-5.12659E-1,-3.0328756E-2,2.5956583E0,2.2032108E-2,-5.2319985E-2,2.658224E-1,1.7472353E-2],"categories":[],"categories_nodes":[],"categories_segments":[],"categories_sizes":[],"default_left":[0,0,0,0,0,0,0,0,0,0,0],"id":40,"left_children":[1,-1,3,5,7,-1,9,-1,-1,-1,-1],"loss_changes":[5.6525112E1,0E0,2.6779626E2,1.2557861E1,8.2216644E-1,0E0,5.9400635E0,0E0,0E0,0E0,0E0],"parents":[2147483647,0,0,2,2,3,3,4,4,6,6],"right_children":[2,-1,4,6,8,-1,10,-1,-1,-1,-1],"split_conditions":[5.903828E0,-5.2387923E-2,6.8562336E0,5.7422056E0,6.7208834E0,-3.0328756E-2,7.115213E0,2.2032108E-2,-5.2319985E-2,2.658224E-1,1.7472353E-2],"split_indices":[5225,0,5759,1188,7483,0,280,0,0,0,0],"split_type":[0,0,0,0,0,0,0,0,0,0,0],"sum_hessian":[2.3432883E2,1.0120875E2,1.3312009E2,4.262724E1,9.049284E1,1.3441061E0,4.128313E1,1.000765E0,8.949208E1,4.0147556E1,1.135576E0],"tree_param":{"num_deleted":"0","num_feature":"7800","num_nodes":"11","size_leaf_vector":"1"}},{"base_weights":[1.7694743E-2,-5.2438356E-2,5.5525815E-1,2.5131972E0,-5.092373E-1,-3.139723E-2,2.6230884E0,2.3327323E-2,-5.219952E-2,2.6760876E-1,5.5909257E-2],"categories":[],"categories_nodes":[],"categories_segments":[],"categories_sizes":[],"default_left":[0,0,0,0,0,0,0,0,0,0,0],"id":41,"left_children":[1,-1,3,5,7,-1,9,-1,-1,-1,-1],"loss_changes":[6.868496E1,0E0,2.479045E2,1.38237E1,8.5577965E-1,0E0,2.9215698E0,0E0,0E0,0E0,0E0],"parents":[2147483647,0,0,2,2,3,3,4,4,6,6],"right_children":[2,-1,4,6,8,-1,10,-1,-1,-1,-1],"split_conditions":[6.697636E0,-5.2438356E-2,7.6408663E0,6.4670644E0,7.596544E0,-3.139723E-2,7.9038506E0,2.3327323E-2,-5.219952E-2,2.6760876E-1,5.5909257E-2],"split_indices":[5706,0,3159,418,1833,0,4,0,0,0,0],"split_type":[0,0,0,0,0,0,0,0,0,0,0],"sum_hessian":[2.3370639E2,1.1637675E2,1.1732965E2,4.0843956E1,7.6485695E1,1.4587073E0,3.9385246E1,1.0000174E0,7.548568E1,3.8110104E1,1.275145E0],"tree_param":{"num_deleted":"0","num_feature":"7800","num_nodes":"11","size_leaf_vector":"1"}},{"base_weights":[-6.773302E-3,-5.2488454E-2,6.448453E-1,2.52365E0,-5.0592405E-1,-3.3650596E-2,2.6651537E0,2.204962E-2,-5.207199E-2,2.7281365E-1,2.1176584E-2],"categories":[],"categories_nodes":[],"categories_segments":[],"categories_sizes":[],"default_left":[0,0,0,0,0,0,0,0,0,0,0],"id":42,"left_children":[1,-1,3,5,7,-1,9,-1,-1,-1,-1],"loss_changes":[7.892743E1,0E0,2.2516864E2,1.6884048E1,8.140049E-1,0E0,5.2556763E0,0E0,0E0,0E0,0E0],"parents":[2147483647,0,0,2,2,3,3,4,4,6,6],"right_children":[2,-1,4,6,8,-1,10,-1,-1,-1,-1],"split_conditions":[7.4358435E0,-5.2488454E-2,8.386662E0,7.2851357E0,8.276635E0,-3.3650596E-2,8.662071E0,2.204962E-2,-5.207199E-2,2.7281365E-1,2.1176584E-2],"split_indices":[7529,0,2519,1377,1749,0,20,0,0,0,0],"split_type":[0,0,0,0,0,0,0,0,0,0,0],"sum_hessian":[2.3177965E2,1.2922528E2,1.0255437E2,3.8501633E1,6.4052734E1,1.7500736E0,3.6751556E1,1.0010768E0,6.305166E1,3.5722515E1,1.0290433E0],"tree_param":{"num_deleted":"0","num_feature":"7800","num_nodes":"11","size_leaf_vector":"1"}},{"base_weights":[7.6157603E-6,-5.250991E-2,8.189148E-1,2.5101817E0,-5.00026E-1,-3.2139406E-2,2.6326563E0,2.2121748E-2,-5.186069E-2,2.7119255E-1,1.4170768E-2],"categories":[],"categories_nodes":[],"categories_segments":[],"categories_sizes":[],"default_left":[0,0,0,0,0,0,0,0,0,0,0],"id":43,"left_children":[1,-1,3,5,7,-1,9,-1,-1,-1,-1],"loss_changes":[1.0001567E2,0E0,2.0396136E2,1.4711807E1,8.101187E-1,0E0,7.204529E0,0E0,0E0,0E0,0E0],"parents":[2147483647,0,0,2,2,3,3,4,4,6,6],"right_children":[2,-1,4,6,8,-1,10,-1,-1,-1,-1],"split_conditions":[8.288048E0,-5.250991E-2,9.280061E0,8.2013855E0,9.149697E0,-3.2139406E-2,9.5015545E0,2.2121748E-2,-5.186069E-2,2.7119255E-1,1.4170768E-2],"split_indices":[4488,0,2223,588,398,0,104,0,0,0,0],"split_type":[0,0,0,0,0,0,0,0,0,0,0],"sum_hessian":[2.305872E2,1.407153E2,8.987191E1,3.8982185E1,5.088972E1,1.5488616E0,3.7433327E1,1.0042127E0,4.9885506E1,3.6192856E1,1.2404709E0],"tree_param":{"num_deleted":"0","num_feature":"7800","num_nodes":"11","size_leaf_vector":"1"}},{"base_weights":[-7.0774746E-3,-5.2536488E-2,9.997691E-1,2.4807782E0,-5.1579583E-2,-3.116008E-2,2.5926993E0,2.6893964E-1,-2.8446496E-2],"categories":[],"categories_nodes":[],"categories_segments":[],"categories_sizes":[],"default_left":[0,0,0,0,0,0,0,0,0],"id":44,"left_children":[1,-1,3,5,-1,-1,7,-1,-1],"loss_changes":[1.2102722E2,0E0,1.7819159E2,1.3320023E1,0E0,0E0,1.150412E1,0E0,0E0],"parents":[2147483647,0,0,2,2,3,3,6,6],"right_children":[2,-1,4,6,-1,-1,8,-1,-1],"split_conditions":[9.11456E0,-5.2536488E-2,1.011103E1,8.788726E0,-5.1579583E-2,-3.116008E-2,1.0165578E1,2.6893964E-1,-2.8446496E-2],"split_indices":[2223,0,3118,277,0,0,23,0,0],"split_type":[0,0,0,0,0,0,0,0,0],"sum_hessian":[2.299193E2,1.5210135E2,7.781795E1,3.9035557E1,3.878239E1,1.4355334E0,3.7600025E1,3.644057E1,1.1594527E0],"tree_param":{"num_deleted":"0","num_feature":"7800","num_nodes":"9","size_leaf_vector":"1"}},{"base_weights":[1.3427332E-2,-5.2568983E-2,1.3500189E0,2.4696739E0,-5.094195E-2,-3.2823216E-2,2.5792367E0,2.6851958E-1,-3.0398658E-2],"categories":[],"categories_nodes":[],"categories_segments":[],"categories_sizes":[],"default_left":[0,0,0,0,0,0,0,0,0],"id":45,"left_children":[1,-1,3,5,-1,-1,7,-1,-1],"loss_changes":[1.6981766E2,0E0,1.4227354E2,1.3858765E1,0E0,0E0,1.3329926E1,0E0,0E0],"parents":[2147483647,0,0,2,2,3,3,6,6],"right_children":[2,-1,4,6,-1,-1,8,-1,-1],"split_conditions":[9.883755E0,-5.2568983E-2,1.0907463E1,9.813899E0,-5.094195E-2,-3.2823216E-2,1.1081489E1,2.6851958E-1,-3.0398658E-2],"split_indices":[3422,0,5555,19,0,0,444,0,0],"split_type":[0,0,0,0,0,0,0,0,0],"sum_hessian":[2.336833E2,1.6695024E2,6.673306E1,4.1447437E1,2.5285627E1,1.4866647E0,3.996077E1,3.8610508E1,1.350261E0],"tree_param":{"num_deleted":"0","num_feature":"7800","num_nodes":"9","size_leaf_vector":"1"}},{"base_weights":[-1.799701E-2,-5.2596897E-2,1.7830068E0,2.506037E0,-4.895316E-2,-3.0207345E-2,2.6141417E0,2.7248743E-1,-2.9679004E-2],"categories":[],"categories_nodes":[],"categories_segments":[],"categories_sizes":[],"default_left":[0,0,0,0,0,0,0,0,0],"id":46,"left_children":[1,-1,3,5,-1,-1,7,-1,-1],"loss_changes":[2.1154207E2,0E0,8.481589E1,1.25550995E1,0E0,0E0,1.2871689E1,0E0,0E0],"parents":[2147483647,0,0,2,2,3,3,6,6],"right_children":[2,-1,4,6,-1,-1,8,-1,-1],"split_conditions":[1.0742798E1,-5.2596897E-2,1.1672036E1,1.056264E1,-4.895316E-2,-3.0207345E-2,1.1798193E1,2.7248743E-1,-2.9679004E-2],"split_indices":[6214,0,7162,368,0,0,340,0,0],"split_type":[0,0,0,0,0,0,0,0,0],"sum_hessian":[2.2920393E2,1.7933154E2,4.9872387E1,3.7756912E1,1.2115477E1,1.3331436E0,3.6423767E1,3.515055E1,1.2732197E0],"tree_param":{"num_deleted":"0","num_feature":"7800","num_nodes":"9","size_leaf_vector":"1"}},{"base_weights":[9.655407E-3,-5.21533E-1,2.622752E0,-5.2642208E-2,2.1830937E-2,-2.959475E-2,2.7246407E-1],"categories":[],"categories_nodes":[],"categories_segments":[],"categories_sizes":[],"default_left":[0,0,0,0,0,0,0],"id":47,"left_children":[1,3,5,-1,-1,-1,-1],"loss_changes":[3.321541E2,8.343086E-1,1.28281555E1,0E0,0E0,0E0,0E0],"parents":[2147483647,0,0,1,1,2,2],"right_children":[2,4,6,-1,-1,-1,-1],"split_conditions":[1.1484439E1,1.16444E1,1.1316609E1,-5.2642208E-2,2.1830937E-2,-2.959475E-2,2.7246407E-1],"split_indices":[3366,757,35,0,0,0,0],"split_type":[0,0,0,0,0,0,0],"sum_hessian":[2.373106E2,1.9788507E2,3.942552E1,1.9687256E2,1.0125144E0,1.2656332E0,3.815989E1],"tree_param":{"num_deleted":"0","num_feature":"7800","num_nodes":"7","size_leaf_vector":"1"}},{"base_weights":[-1.5765946E-2,2.050708E0,-5.2408434E-2,2.1022213E-1,1.2999277E-2],"categories":[],"categories_nodes":[],"categories_segments":[],"categories_sizes":[],"default_left":[0,0,0,0,0],"id":48,"left_children":[1,3,-1,-1,-1],"loss_changes":[2.4153601E2,4.218399E0,0E0,0E0,0E0],"parents":[2147483647,0,0,1,1],"right_children":[2,4,-1,-1,-1],"split_conditions":[5.069915E-1,6.2995416E-1,-5.2408434E-2,2.1022213E-1,1.2999277E-2],"split_indices":[3544,35,0,0,0],"split_type":[0,0,0,0,0],"sum_hessian":[2.2791771E2,4.4396736E1,1.8352098E2,4.3145092E1,1.251644E0],"tree_param":{"num_deleted":"0","num_feature":"7800","num_nodes":"5","size_leaf_vector":"1"}},{"base_weights":[-6.725583E-3,1.512262E0,-5.2385416E-2,-4.0969837E-1,2.0053608E0,-4.8278343E-2,2.2405906E-2,2.0663838E0,-2.759491E-2,5.146364E-2,2.1014695E-1],"categories":[],"categories_nodes":[],"categories_segments":[],"categories_sizes":[],"default_left":[0,0,0,0,0,0,0,0,0,0,0],"id":49,"left_children":[1,3,-1,5,7,-1,-1,9,-1,-1,-1],"loss_changes":[1.8037651E2,5.609424E1,0E0,6.981888E-1,7.055252E0,0E0,0E0,1.39505E0,0E0,0E0,0E0],"parents":[2147483647,0,0,1,1,3,3,4,4,7,7],"right_children":[2,4,-1,6,8,-1,-1,10,-1,-1,-1],"split_conditions":[1.2690699E0,3.7663198E-1,-5.2385416E-2,4.2191178E-1,1.4071788E0,-4.8278343E-2,2.2405906E-2,2.1643391E-1,-2.759491E-2,5.146364E-2,2.1014695E-1],"split_indices":[1818,4895,0,6843,202,0,0,24,0,0,0],"split_type":[0,0,0,0,0,0,0,0,0,0,0],"sum_hessian":[2.2762076E2,5.732191E1,1.7029886E2,1.1738332E1,4.558358E1,1.0738217E1,1.0001141E0,4.4487778E1,1.0957992E0,1.3300753E0,4.3157703E1],"tree_param":{"num_deleted":"0","num_feature":"7800","num_nodes":"11","size_leaf_vector":"1"}},{"base_weights":[-2.4057655E-2,1.1477249E0,-5.2351024E-2,-5.057407E-2,1.9968218E0,2.0625865E0,-2.816364E-2,-2.7335176E-2,2.127364E-1],"categories":[],"categories_nodes":[],"categories_segments":[],"categories_sizes":[],"default_left":[0,0,0,0,0,0,0,0,0],"id":50,"left_children":[1,3,-1,-1,5,7,-1,-1,-1],"loss_changes":[1.3356569E2,9.6774185E1,0E0,0E0,7.3641815E0,7.2575073E0,0E0,0E0,0E0],"parents":[2147483647,0,0,1,1,4,4,5,5],"right_children":[2,4,-1,-1,6,8,-1,-1,-1],"split_conditions":[2.0907085E0,1.1307671E0,-5.2351024E-2,-5.057407E-2,2.1168654E0,9.8226166E-1,-2.816364E-2,-2.7335176E-2,2.127364E-1],"split_indices":[5282,7321,0,0,551,0,0,0,0],"split_type":[0,0,0,0,0,0,0,0,0],"sum_hessian":[2.2619334E2,6.721052E1,1.5898282E2,2.2941126E1,4.4269394E1,4.3119545E1,1.1498466E0,1.0765959E0,4.204295E1],"tree_param":{"num_deleted":"0","num_feature":"7800","num_nodes":"9","size_leaf_vector":"1"}},{"base_weights":[8.807224E-3,9.385277E-1,-5.2347805E-2,-5.12769E-2,1.9804918E0,2.0517147E0,-3.0513415E-2,-2.9956577E-2,2.1228385E-1],"categories":[],"categories_nodes":[],"categories_segments":[],"categories_sizes":[],"default_left":[0,0,0,0,0,0,0,0,0],"id":51,"left_children":[1,3,-1,-1,5,7,-1,-1,-1],"loss_changes":[1.15646645E2,1.296695E2,0E0,0E0,8.721268E0,8.722397E0,0E0,0E0,0E0],"parents":[2147483647,0,0,1,1,4,4,5,5],"right_children":[2,4,-1,-1,6,8,-1,-1,-1],"split_conditions":[2.9677863E0,1.8435984E0,-5.2347805E-2,-5.12769E-2,3.0611875E0,1.6888044E0,-3.0513415E-2,-2.9956577E-2,2.1228385E-1],"split_indices":[1800,5282,0,0,22,226,0,0,0],"split_type":[0,0,0,0,0,0,0,0,0],"sum_hessian":[2.3169511E2,8.407741E1,1.476177E2,3.534922E1,4.8728184E1,4.7354885E1,1.3732977E0,1.2960732E0,4.605881E1],"tree_param":{"num_deleted":"0","num_feature":"7800","num_nodes":"9","size_leaf_vector":"1"}},{"base_weights":[3.4964174E-2,7.8904474E-1,-5.2320726E-2,-5.1657595E-2,1.9842672E0,-3.1743407E-2,2.0581734E0,2.1340755E-1,-3.1288028E-2],"categories":[],"categories_nodes":[],"categories_segments":[],"categories_sizes":[],"default_left":[0,0,0,0,0,0,0,0,0],"id":52,"left_children":[1,3,-1,-1,5,-1,7,-1,-1],"loss_changes":[9.955916E1,1.5800064E2,0E0,0E0,9.622086E0,0E0,9.88504E0,0E0,0E0],"parents":[2147483647,0,0,1,1,4,4,6,6],"right_children":[2,4,-1,-1,6,-1,8,-1,-1],"split_conditions":[3.6586764E0,2.643094E0,-5.2320726E-2,-5.1657595E-2,2.545909E0,-3.1743407E-2,3.7763348E0,2.1340755E-1,-3.1288028E-2],"split_indices":[582,3174,0,0,279,0,375,0,0],"split_type":[0,0,0,0,0,0,0,0,0],"sum_hessian":[2.3455443E2,9.959269E1,1.3496175E2,4.7869484E1,5.1723206E1,1.5066199E0,5.0216587E1,4.8755768E1,1.4608195E0],"tree_param":{"num_deleted":"0","num_feature":"7800","num_nodes":"9","size_leaf_vector":"1"}},{"base_weights":[1.3987683E-3,5.8709955E-1,-5.227322E-2,-5.037885E-1,2.0000844E0,-5.1906355E-2,2.2161657E-2,2.0584629E0,-2.7503014E-2,1.1129717E-2,2.1119161E-1],"categories":[],"categories_nodes":[],"categories_segments":[],"categories_sizes":[],"default_left":[0,0,0,0,0,0,0,0,0,0,0],"id":53,"left_children":[1,3,-1,5,7,-1,-1,9,-1,-1,-1],"loss_changes":[7.1651535E1,1.7091249E2,0E0,8.1313515E-1,6.9712677E0,0E0,0E0,4.6710052E0,0E0,0E0,0E0],"parents":[2147483647,0,0,1,1,3,3,4,4,7,7],"right_children":[2,4,-1,6,8,-1,-1,10,-1,-1,-1],"split_conditions":[4.5319076E0,3.5824502E0,-5.227322E-2,3.629949E0,4.63123E0,-5.1906355E-2,2.2161657E-2,3.3988454E0,-2.7503014E-2,1.1129717E-2,2.1119161E-1],"split_indices":[3699,3278,0,1947,104,0,0,55,0,0,0],"split_type":[0,0,0,0,0,0,0,0,0,0,0],"sum_hessian":[2.3140517E2,1.0922704E2,1.2217812E2,6.200209E1,4.7224953E1,6.1002003E1,1.0000863E0,4.613634E1,1.0886123E0,1.315037E0,4.4821304E1],"tree_param":{"num_deleted":"0","num_feature":"7800","num_nodes":"11","size_leaf_vector":"1"}},{"base_weights":[-2.4314938E-2,4.401121E-1,-5.2201696E-2,-5.198098E-2,1.9958056E0,2.068654E0,-2.9531403E-2,-2.7834112E-2,2.1365848E-1],"categories":[],"categories_nodes":[],"categories_segments":[],"categories_sizes":[],"default_left":[0,0,0,0,0,0,0,0,0],"id":54,"left_children":[1,3,-1,-1,5,7,-1,-1,-1],"loss_changes":[5.234888E1,1.760309E2,0E0,0E0,8.108536E0,7.555893E0,0E0,0E0,0E0],"parents":[2147483647,0,0,1,1,4,4,5,5],"right_children":[2,4,-1,-1,6,8,-1,-1,-1],"split_conditions":[5.3015623E0,4.2982807E0,-5.2201696E-2,-5.198098E-2,5.43501E0,4.0355797E0,-2.9531403E-2,-2.7834112E-2,2.1365848E-1],"split_indices":[6624,5714,0,0,193,21,0,0,0],"split_type":[0,0,0,0,0,0,0,0,0],"sum_hessian":[2.2448119E2,1.1618226E2,1.0829893E2,7.22606E1,4.392166E1,4.266227E1,1.2593902E0,1.1129388E0,4.154933E1],"tree_param":{"num_deleted":"0","num_feature":"7800","num_nodes":"9","size_leaf_vector":"1"}},{"base_weights":[-1.5799215E-2,3.6178374E-1,-5.2147217E-2,-5.2087512E-2,1.9865742E0,2.0740912E0,-3.207672E-2,-2.6565785E-2,2.1343704E-1],"categories":[],"categories_nodes":[],"categories_segments":[],"categories_sizes":[],"default_left":[0,0,0,0,0,0,0,0,0],"id":55,"left_children":[1,3,-1,-1,5,7,-1,-1,-1],"loss_changes":[4.3589607E1,1.8851534E2,0E0,0E0,9.999741E0,6.8672028E0,0E0,0E0,0E0],"parents":[2147483647,0,0,1,1,4,4,5,5],"right_children":[2,4,-1,-1,6,8,-1,-1,-1],"split_conditions":[6.109347E0,5.1171927E0,-5.2147217E-2,-5.2087512E-2,6.253492E0,5.0316424E0,-3.207672E-2,-2.6565785E-2,2.1343704E-1],"split_indices":[6900,4524,0,0,1486,171,0,0,0],"split_type":[0,0,0,0,0,0,0,0,0],"sum_hessian":[2.2630925E2,1.2972725E2,9.658201E1,8.450161E1,4.5225636E1,4.367032E1,1.5553168E0,1.0112499E0,4.265907E1],"tree_param":{"num_deleted":"0","num_feature":"7800","num_nodes":"9","size_leaf_vector":"1"}},{"base_weights":[3.1596754E-2,-5.2159823E-2,4.1593635E-1,1.956141E0,-5.210201E-2,2.024467E0,-3.0740514E-2,-2.940141E-2,2.089608E-1],"categories":[],"categories_nodes":[],"categories_segments":[],"categories_sizes":[],"default_left":[0,0,0,0,0,0,0,0,0],"id":56,"left_children":[1,-1,3,5,-1,7,-1,-1,-1],"loss_changes":[4.943996E1,0E0,1.9895699E2,8.678497E0,0E0,8.270813E0,0E0,0E0,0E0],"parents":[2147483647,0,0,2,2,3,3,5,5],"right_children":[2,-1,4,6,-1,8,-1,-1,-1],"split_conditions":[5.8990726E0,-5.2159823E-2,6.9852743E0,7.0031037E0,-5.210201E-2,5.6486583E0,-3.0740514E-2,-2.940141E-2,2.089608E-1],"split_indices":[5412,0,5273,795,0,1141,0,0,0],"split_type":[0,0,0,0,0,0,0,0,0],"sum_hessian":[2.3051268E2,9.43516E1,1.3616107E2,5.108986E1,8.507121E1,4.9695408E1,1.3944502E0,1.2620856E0,4.8433323E1],"tree_param":{"num_deleted":"0","num_feature":"7800","num_nodes":"9","size_leaf_vector":"1"}},{"base_weights":[-7.1593525E-4,-5.2215572E-2,4.7214934E-1,1.989095E0,-5.1978976E-2,2.036326E0,1.2794919E-2,1.3467277E-2,2.085425E-1],"categories":[],"categories_nodes":[],"categories_segments":[],"categories_sizes":[],"default_left":[0,0,0,0,0,0,0,0,0],"id":57,"left_children":[1,-1,3,5,-1,7,-1,-1,-1],"loss_changes":[5.6374847E1,0E0,1.8145457E2,3.9248505E0,0E0,4.0484924E0,0E0,0E0,0E0],"parents":[2147483647,0,0,2,2,3,3,5,5],"right_children":[2,-1,4,6,-1,8,-1,-1,-1],"split_conditions":[6.7546167E0,-5.2215572E-2,7.6408663E0,7.834756E0,-5.1978976E-2,6.580872E0,1.2794919E-2,1.3467277E-2,2.085425E-1],"split_indices":[5683,0,3159,59,0,121,0,0,0],"split_type":[0,0,0,0,0,0,0,0,0],"sum_hessian":[2.2663574E2,1.07732414E2,1.1890332E2,4.661342E1,7.22899E1,4.5367973E1,1.2454461E0,1.2360818E0,4.4131893E1],"tree_param":{"num_deleted":"0","num_feature":"7800","num_nodes":"9","size_leaf_vector":"1"}},{"base_weights":[-1.3160761E-2,-5.227359E-2,5.77697E-1,2.0271676E0,-5.1858593E-2,2.0891902E0,-2.7481183E-2,1.3449374E-2,2.1415722E-1],"categories":[],"categories_nodes":[],"categories_segments":[],"categories_sizes":[],"default_left":[0,0,0,0,0,0,0,0,0],"id":58,"left_children":[1,-1,3,5,-1,7,-1,-1,-1],"loss_changes":[6.895187E1,0E0,1.6958037E2,7.124008E0,0E0,4.2978973E0,0E0,0E0,0E0],"parents":[2147483647,0,0,2,2,3,3,5,5],"right_children":[2,-1,4,6,-1,8,-1,-1,-1],"split_conditions":[7.514198E0,-5.227359E-2,8.52334E0,8.747484E0,-5.1858593E-2,7.3864675E0,-2.7481183E-2,1.3449374E-2,2.1415722E-1],"split_indices":[3330,0,1246,525,0,246,0,0,0],"split_type":[0,0,0,0,0,0,0,0,0],"sum_hessian":[2.2700723E2,1.2194938E2,1.0505786E2,4.4875614E1,6.0182247E1,4.3788258E1,1.087356E0,1.2359233E0,4.2552334E1],"tree_param":{"num_deleted":"0","num_feature":"7800","num_nodes":"9","size_leaf_vector":"1"}},{"base_weights":[-7.4272073E-4,-5.2310575E-2,7.145841E-1,1.9771838E0,-4.9831456E-1,-3.1984404E-2,2.059325E0,2.1145498E-2,-5.1665343E-2,2.119445E-1,-2.7245406E-2],"categories":[],"categories_nodes":[],"categories_segments":[],"categories_sizes":[],"default_left":[0,0,0,0,0,0,0,0,0,0,0],"id":59,"left_children":[1,-1,3,5,7,-1,9,-1,-1,-1,-1],"loss_changes":[8.7553856E1,0E0,1.5242892E2,9.838821E0,7.761736E-1,0E0,7.181534E0,0E0,0E0,0E0,0E0],"parents":[2147483647,0,0,2,2,3,3,4,4,6,6],"right_children":[2,-1,4,6,8,-1,10,-1,-1,-1,-1],"split_conditions":[8.319348E0,-5.2310575E-2,9.284055E0,8.105474E0,9.16932E0,-3.1984404E-2,9.321901E0,2.1145498E-2,-5.1665343E-2,2.119445E-1,-2.7245406E-2],"split_indices":[7451,0,5376,589,6236,0,336,0,0,0,0],"split_type":[0,0,0,0,0,0,0,0,0,0,0],"sum_hessian":[2.3231367E2,1.3442174E2,9.789194E1,4.765453E1,5.0237404E1,1.5453695E0,4.610916E1,1.0000974E0,4.9237305E1,4.5038982E1,1.0701784E0],"tree_param":{"num_deleted":"0","num_feature":"7800","num_nodes":"11","size_leaf_vector":"1"}},{"base_weights":[-9.3426015E-3,-5.233109E-2,8.862856E-1,1.9586194E0,-5.130536E-2,-3.1156406E-2,2.0361784E0,2.1017495E-1,-2.8258342E-2],"categories":[],"categories_nodes":[],"categories_segments":[],"categories_sizes":[],"default_left":[0,0,0,0,0,0,0,0,0],"id":60,"left_children":[1,-1,3,5,-1,-1,7,-1,-1],"loss_changes":[1.0620507E2,0E0,1.27244484E2,9.057175E0,0E0,0E0,7.6471405E0,0E0,0E0],"parents":[2147483647,0,0,2,2,3,3,6,6],"right_children":[2,-1,4,6,-1,-1,8,-1,-1],"split_conditions":[9.079716E0,-5.233109E-2,1.0097631E1,9.011955E0,-5.130536E-2,-3.1156406E-2,1.0162273E1,2.1017495E-1,-2.8258342E-2],"split_indices":[7330,0,2573,197,0,0,340,0,0],"split_type":[0,0,0,0,0,0,0,0,0],"sum_hessian":[2.2871027E2,1.4558186E2,8.312841E1,4.6836926E1,3.6291485E1,1.4476092E0,4.5389317E1,4.4232086E1,1.1572287E0],"tree_param":{"num_deleted":"0","num_feature":"7800","num_nodes":"9","size_leaf_vector":"1"}},{"base_weights":[-6.4671044E-3,-5.2378234E-2,1.1310062E0,1.9983453E0,-4.7100317E-1,1.3706073E-2,2.04524E0,2.1160087E-2,-5.065269E-2,2.0860517E-1,1.8355696E-2],"categories":[],"categories_nodes":[],"categories_segments":[],"categories_sizes":[],"default_left":[0,0,0,0,0,0,0,0,0,0,0],"id":61,"left_children":[1,-1,3,5,7,-1,9,-1,-1,-1,-1],"loss_changes":[1.3599033E2,0E0,1.0133089E2,3.8275757E0,7.421646E-1,0E0,3.0995483E0,0E0,0E0,0E0,0E0],"parents":[2147483647,0,0,2,2,3,3,4,4,6,6],"right_children":[2,-1,4,6,8,-1,10,-1,-1,-1,-1],"split_conditions":[9.940799E0,-5.2378234E-2,1.0843316E1,9.859953E0,1.0684833E1,1.3706073E-2,1.1005953E1,2.1160087E-2,-5.065269E-2,2.0860517E-1,1.8355696E-2],"split_indices":[1574,0,4243,10,2592,0,1,0,0,0,0],"split_type":[0,0,0,0,0,0,0,0,0,0,0],"sum_hessian":[2.2909943E2,1.5784988E2,7.124954E1,4.6063206E1,2.5186337E1,1.2284361E0,4.483477E1,1.000707E0,2.4185629E1,4.3755054E1,1.0797138E0],"tree_param":{"num_deleted":"0","num_feature":"7800","num_nodes":"11","size_leaf_vector":"1"}},{"base_weights":[4.56475E-3,-5.239125E-2,1.52065E0,2.017551E0,-4.8618846E-2,-2.971611E-2,2.08788E0,2.1467204E-1,-2.6774747E-2],"categories":[],"categories_nodes":[],"categories_segments":[],"categories_sizes":[],"default_left":[0,0,0,0,0,0,0,0,0],"id":62,"left_children":[1,-1,3,5,-1,-1,7,-1,-1],"loss_changes":[1.8454057E2,0E0,6.0347794E1,8.420181E0,0E0,0E0,7.037216E0,0E0,0E0],"parents":[2147483647,0,0,2,2,3,3,6,6],"right_children":[2,-1,4,6,-1,-1,8,-1,-1],"split_conditions":[1.0786658E1,-5.239125E-2,1.1686688E1,1.0563835E1,-4.8618846E-2,-2.971611E-2,1.1909512E1,2.1467204E-1,-2.6774747E-2],"split_indices":[200,0,691,871,0,0,268,0,0],"split_type":[0,0,0,0,0,0,0,0,0],"sum_hessian":[2.283311E2,1.697975E2,5.8533607E1,4.6912548E1,1.162106E1,1.2882284E0,4.5624317E1,4.4598972E1,1.0253446E0],"tree_param":{"num_deleted":"0","num_feature":"7800","num_nodes":"9","size_leaf_vector":"1"}},{"base_weights":[7.4968166E-3,-5.2429058E-2,2.0394275E0,-2.9968617E-2,2.1123461E-1],"categories":[],"categories_nodes":[],"categories_segments":[],"categories_sizes":[],"default_left":[0,0,0,0,0],"id":63,"left_children":[1,-1,3,-1,-1],"loss_changes":[2.4729968E2,0E0,8.730118E0,0E0,0E0],"parents":[2147483647,0,0,2,2],"right_children":[2,-1,4,-1,-1],"split_conditions":[1.1428473E1,-5.2429058E-2,1.1412605E1,-2.9968617E-2,2.1123461E-1],"split_indices":[4575,0,40,0,0],"split_type":[0,0,0,0,0],"sum_hessian":[2.2687404E2,1.8040204E2,4.6472E1,1.3108904E0,4.516111E1],"tree_param":{"num_deleted":"0","num_feature":"7800","num_nodes":"5","size_leaf_vector":"1"}},{"base_weights":[-1.2334449E-2,1.6872782E0,-5.2207377E-2,1.7373191E-1,-2.7911274E-2],"categories":[],"categories_nodes":[],"categories_segments":[],"categories_sizes":[],"default_left":[0,0,0,0,0],"id":64,"left_children":[1,3,-1,-1,-1],"loss_changes":[1.9181813E2,5.511612E0,0E0,0E0,0E0],"parents":[2147483647,0,0,1,1],"right_children":[2,4,-1,-1,-1],"split_conditions":[4.5759284E-1,6.471439E-1,-5.2207377E-2,1.7373191E-1,-2.7911274E-2],"split_indices":[6625,216,0,0,0],"split_type":[0,0,0,0,0],"sum_hessian":[2.1939035E2,5.008453E1,1.6930583E2,4.8955208E1,1.1293223E0],"tree_param":{"num_deleted":"0","num_feature":"7800","num_nodes":"5","size_leaf_vector":"1"}},{"base_weights":[1.8327663E-2,1.3173324E0,-5.2186783E-2,-4.8169974E-2,1.6698215E0,1.713803E0,-2.756517E-2,1.5506416E-2,1.7435823E-1],"categories":[],"categories_nodes":[],"categories_segments":[],"categories_sizes":[],"default_left":[0,0,0,0,0,0,0,0,0],"id":65,"left_children":[1,3,-1,-1,5,7,-1,-1,-1],"loss_changes":[1.5983997E2,4.322764E1,0E0,0E0,5.2779846E0,2.2853699E0,0E0,0E0,0E0],"parents":[2147483647,0,0,1,1,4,4,5,5],"right_children":[2,4,-1,-1,6,8,-1,-1,-1],"split_conditions":[1.246237E0,3.3515194E-1,-5.2186783E-2,-4.8169974E-2,1.4953307E0,1.4110261E-1,-2.756517E-2,1.5506416E-2,1.7435823E-1],"split_indices":[2871,4111,0,0,617,50,0,0,0],"split_type":[0,0,0,0,0,0,0,0,0],"sum_hessian":[2.2580458E2,6.589901E1,1.5990556E2,1.0736345E1,5.5162666E1,5.4059612E1,1.1030511E0,1.1297927E0,5.292982E1],"tree_param":{"num_deleted":"0","num_feature":"7800","num_nodes":"9","size_leaf_vector":"1"}},{"base_weights":[-3.1684615E-2,9.8374987E-1,-5.214842E-2,-5.0342053E-2,1.6583699E0,-2.8801719E-2,1.7119802E0,1.7557852E-1,9.315613E-3],"categories":[],"categories_nodes":[],"categories_segments":[],"categories_sizes":[],"default_left":[0,0,0,0,0,0,0,0,0],"id":66,"left_children":[1,3,-1,-1,5,-1,7,-1,-1],"loss_changes":[1.10772255E2,7.355585E1,0E0,0E0,5.72052E0,0E0,3.3039093E0,0E0,0E0],"parents":[2147483647,0,0,1,1,4,4,6,6],"right_children":[2,4,-1,-1,6,-1,8,-1,-1],"split_conditions":[2.0982666E0,1.1214616E0,-5.214842E-2,-5.0342053E-2,9.90025E-1,-2.8801719E-2,2.096211E0,1.7557852E-1,9.315613E-3],"split_indices":[3287,7377,0,0,9,0,72,0,0],"split_type":[0,0,0,0,0,0,0,0,0],"sum_hessian":[2.2068929E2,7.148361E1,1.4920567E2,2.2386759E1,4.9096855E1,1.1988481E0,4.7898006E1,4.6553677E1,1.3443334E0],"tree_param":{"num_deleted":"0","num_feature":"7800","num_nodes":"9","size_leaf_vector":"1"}},{"base_weights":[8.410258E-3,8.371921E-1,-5.2137595E-2,-5.1005628E-2,1.654731E0,1.7120134E0,-3.072211E-2,-2.7715717E-2,1.7596672E-1],"categories":[],"categories_nodes":[],"categories_segments":[],"categories_sizes":[],"default_left":[0,0,0,0,0,0,0,0,0],"id":67,"left_children":[1,3,-1,-1,5,7,-1,-1,-1],"loss_changes":[9.884729E1,9.753366E1,0E0,0E0,6.6924133E0,5.5556793E0,0E0,0E0,0E0],"parents":[2147483647,0,0,1,1,4,4,5,5],"right_children":[2,4,-1,-1,6,8,-1,-1,-1],"split_conditions":[2.923621E0,1.929557E0,-5.2137595E-2,-5.1005628E-2,3.050349E0,1.767023E0,-3.072211E-2,-2.7715717E-2,1.7596672E-1],"split_indices":[7276,7633,0,0,284,266,0,0,0],"split_type":[0,0,0,0,0,0,0,0,0],"sum_hessian":[2.2313097E2,8.678572E1,1.3634525E2,3.2916946E1,5.386877E1,5.2464382E1,1.4043884E0,1.114789E0,5.1349594E1],"tree_param":{"num_deleted":"0","num_feature":"7800","num_nodes":"9","size_leaf_vector":"1"}},{"base_weights":[3.281687E-2,7.0487726E-1,-5.21082E-2,-5.1413395E-2,1.6386814E0,1.7047424E0,-3.3457175E-2,-3.120848E-2,1.762624E-1],"categories":[],"categories_nodes":[],"categories_segments":[],"categories_sizes":[],"default_left":[0,0,0,0,0,0,0,0,0],"id":68,"left_children":[1,3,-1,-1,5,7,-1,-1,-1],"loss_changes":[8.575227E1,1.1929337E2,0E0,0E0,8.282211E0,7.25177E0,0E0,0E0,0E0],"parents":[2147483647,0,0,1,1,4,4,5,5],"right_children":[2,4,-1,-1,6,8,-1,-1,-1],"split_conditions":[3.7575045E0,2.6788344E0,-5.21082E-2,-5.1413395E-2,3.8346794E0,2.6864104E0,-3.3457175E-2,-3.120848E-2,1.762624E-1],"split_indices":[4712,3463,0,0,2059,297,0,0,0],"split_type":[0,0,0,0,0,0,0,0,0],"sum_hessian":[2.2837325E2,1.0305782E2,1.25315414E2,4.489725E1,5.8160572E1,5.6408203E1,1.7523708E0,1.4511869E0,5.4957016E1],"tree_param":{"num_deleted":"0","num_feature":"7800","num_nodes":"9","size_leaf_vector":"1"}},{"base_weights":[1.1098857E-2,5.437303E-1,-5.2059807E-2,-5.1689256E-2,1.6374844E0,-3.115269E-2,1.6951263E0,1.7448077E-1,-2.8633758E-2],"categories":[],"categories_nodes":[],"categories_segments":[],"categories_sizes":[],"default_left":[0,0,0,0,0,0,0,0,0],"id":69,"left_children":[1,3,-1,-1,5,-1,7,-1,-1],"loss_changes":[6.440988E1,1.3263925E2,0E0,0E0,6.8385315E0,0E0,5.885605E0,0E0,0E0],"parents":[2147483647,0,0,1,1,4,4,6,6],"right_children":[2,4,-1,-1,6,-1,8,-1,-1],"split_conditions":[4.4924164E0,3.5189686E0,-5.2059807E-2,-5.1689256E-2,3.3955338E0,-3.115269E-2,4.5910206E0,1.7448077E-1,-2.8633758E-2],"split_indices":[5201,3967,0,0,6259,0,267,0,0],"split_type":[0,0,0,0,0,0,0,0,0],"sum_hessian":[2.2543771E2,1.1260857E2,1.1282914E2,5.7437927E1,5.5170643E1,1.4582754E0,5.3712364E1,5.2515087E1,1.1972775E0],"tree_param":{"num_deleted":"0","num_feature":"7800","num_nodes":"9","size_leaf_vector":"1"}},{"base_weights":[-4.8927978E-2,3.709643E-1,-5.1993627E-2,-5.1751316E-2,1.6351405E0,-2.9086346E-2,1.6926664E0,1.7510118E-1,-2.8531069E-2],"categories":[],"categories_nodes":[],"categories_segments":[],"categories_sizes":[],"default_left":[0,0,0,0,0,0,0,0,0],"id":70,"left_children":[1,3,-1,-1,5,-1,7,-1,-1],"loss_changes":[4.291432E1,1.2977399E2,0E0,0E0,5.768074E0,0E0,5.8524323E0,0E0,0E0],"parents":[2147483647,0,0,1,1,4,4,6,6],"right_children":[2,4,-1,-1,6,-1,8,-1,-1],"split_conditions":[5.2899837E0,4.363442E0,-5.1993627E-2,-5.1751316E-2,4.133752E0,-2.9086346E-2,5.405778E0,1.7510118E-1,-2.8531069E-2],"split_indices":[6331,3744,0,0,1057,0,106,0,0],"split_type":[0,0,0,0,0,0,0,0,0],"sum_hessian":[2.150128E2,1.1378695E2,1.01225845E2,6.7169846E1,4.6617104E1,1.2343407E0,4.5382763E1,4.4193897E1,1.1888642E0],"tree_param":{"num_deleted":"0","num_feature":"7800","num_nodes":"9","size_leaf_vector":"1"}},{"base_weights":[-2.1079779E-2,3.3453935E-1,-5.194083E-2,-5.0728106E-1,1.694524E0,-5.1863123E-2,1.9894606E-2,1.74037E0,-2.634875E-2,4.7200345E-2,1.76737E-1],"categories":[],"categories_nodes":[],"categories_segments":[],"categories_sizes":[],"default_left":[0,0,0,0,0,0,0,0,0,0,0],"id":71,"left_children":[1,3,-1,5,7,-1,-1,9,-1,-1,-1],"loss_changes":[3.931622E1,1.4912155E2,0E0,7.505245E-1,4.923874E0,0E0,0E0,8.3480835E-1,0E0,0E0,0E0],"parents":[2147483647,0,0,1,1,3,3,4,4,7,7],"right_children":[2,4,-1,6,8,-1,-1,10,-1,-1,-1],"split_conditions":[6.158945E0,5.159547E0,-5.194083E-2,5.3665795E0,6.251026E0,-5.1863123E-2,1.9894606E-2,5.0096297E0,-2.634875E-2,4.7200345E-2,1.76737E-1],"split_indices":[27,437,0,7434,31,0,0,55,0,0,0],"split_type":[0,0,0,0,0,0,0,0,0,0,0],"sum_hessian":[2.1987532E2,1.2850194E2,9.137338E1,7.975882E1,4.8743122E1,7.875868E1,1.0001415E0,4.7736546E1,1.0065765E0,1.3802131E0,4.6356335E1],"tree_param":{"num_deleted":"0","num_feature":"7800","num_nodes":"11","size_leaf_vector":"1"}},{"base_weights":[2.171993E-2,-5.1955413E-2,3.783357E-1,1.6336993E0,-5.1891297E-2,-3.017799E-2,1.6852695E0,1.7347357E-1,-2.9017443E-2],"categories":[],"categories_nodes":[],"categories_segments":[],"categories_sizes":[],"default_left":[0,0,0,0,0,0,0,0,0],"id":72,"left_children":[1,-1,3,5,-1,-1,7,-1,-1],"loss_changes":[4.399089E1,0E0,1.555548E2,6.2469177E0,0E0,0E0,5.9902954E0,0E0,0E0],"parents":[2147483647,0,0,2,2,3,3,6,6],"right_children":[2,-1,4,6,-1,-1,8,-1,-1],"split_conditions":[5.8437505E0,-5.1955413E-2,7.0143933E0,5.764903E0,-5.1891297E-2,-3.017799E-2,7.0629916E0,1.7347357E-1,-2.9017443E-2],"split_indices":[3915,0,4804,348,0,0,20,0,0],"split_type":[0,0,0,0,0,0,0,0,0],"sum_hessian":[2.25882E2,8.953231E1,1.363497E2,5.6490963E1,7.9858734E1,1.3401983E0,5.5150764E1,5.392237E1,1.2283947E0],"tree_param":{"num_deleted":"0","num_feature":"7800","num_nodes":"9","size_leaf_vector":"1"}},{"base_weights":[-1.3987367E-2,-5.2017E-2,4.1937986E-1,1.6536605E0,-5.17835E-2,1.7113695E0,-3.0417522E-2,1.1836718E-2,1.7488548E-1],"categories":[],"categories_nodes":[],"categories_segments":[],"categories_sizes":[],"default_left":[0,0,0,0,0,0,0,0,0],"id":73,"left_children":[1,-1,3,5,-1,7,-1,-1,-1],"loss_changes":[4.9529007E1,0E0,1.4159084E2,6.4801483E0,0E0,2.8615417E0,0E0,0E0,0E0],"parents":[2147483647,0,0,2,2,3,3,5,5],"right_children":[2,-1,4,6,-1,8,-1,-1,-1],"split_conditions":[6.7013364E0,-5.2017E-2,7.643431E0,7.820301E0,-5.17835E-2,6.638976E0,-3.0417522E-2,1.1836718E-2,1.7488548E-1],"split_indices":[6511,0,5738,46,0,8,0,0,0],"split_type":[0,0,0,0,0,0,0,0,0],"sum_hessian":[2.2379117E2,1.03131256E2,1.2065991E2,5.1746742E1,6.891318E1,5.0387413E1,1.3593272E0,1.2540023E0,4.913341E1],"tree_param":{"num_deleted":"0","num_feature":"7800","num_nodes":"9","size_leaf_vector":"1"}},{"base_weights":[-4.035693E-3,-5.2066434E-2,5.3644574E-1,1.691685E0,-5.007887E-1,1.7294866E0,1.0813674E-2,1.9911435E-2,-5.1635016E-2,1.2347172E-2,1.7668472E-1],"categories":[],"categories_nodes":[],"categories_segments":[],"categories_sizes":[],"default_left":[0,0,0,0,0,0,0,0,0,0,0],"id":74,"left_children":[1,-1,3,5,7,9,-1,-1,-1,-1,-1],"loss_changes":[6.290483E1,0E0,1.3277805E2,2.944687E0,7.4308014E-1,2.84375E0,0E0,0E0,0E0,0E0,0E0],"parents":[2147483647,0,0,2,2,3,3,4,4,5,5],"right_children":[2,-1,4,6,8,10,-1,-1,-1,-1,-1],"split_conditions":[7.530246E0,-5.2066434E-2,8.462864E0,8.597873E0,8.333034E0,7.4133296E0,1.0813674E-2,1.9911435E-2,-5.1635016E-2,1.2347172E-2,1.7668472E-1],"split_indices":[6258,0,515,253,2518,614,0,0,0,0,0],"split_type":[0,0,0,0,0,0,0,0,0,0,0],"sum_hessian":[2.2328082E2,1.1417823E2,1.0910259E2,5.13167E1,5.7785892E1,5.0030247E1,1.2864548E0,1.0003022E0,5.678559E1,1.2352611E0,4.8794983E1],"tree_param":{"num_deleted":"0","num_feature":"7800","num_nodes":"11","size_leaf_vector":"1"}},{"base_weights":[-6.9784336E-3,-5.2096754E-2,6.58231E-1,1.6638778E0,-5.1391955E-2,-2.9557282E-2,1.7183908E0,1.7552184E-1,1.2108505E-2],"categories":[],"categories_nodes":[],"categories_segments":[],"categories_sizes":[],"default_left":[0,0,0,0,0,0,0,0,0],"id":75,"left_children":[1,-1,3,5,-1,-1,7,-1,-1],"loss_changes":[7.680089E1,0E0,1.1627225E2,6.1622467E0,0E0,0E0,2.8257294E0,0E0,0E0],"parents":[2147483647,0,0,2,2,3,3,6,6],"right_children":[2,-1,4,6,-1,-1,8,-1,-1],"split_conditions":[8.247747E0,-5.2096754E-2,9.2026005E0,8.257609E0,-5.1391955E-2,-2.9557282E-2,9.515955E0,1.7552184E-1,1.2108505E-2],"split_indices":[2809,0,5640,60,0,0,138,0,0],"split_type":[0,0,0,0,0,0,0,0,0],"sum_hessian":[2.2261989E2,1.2570664E2,9.6913246E1,5.1935585E1,4.4977657E1,1.2860731E0,5.0649513E1,4.9411423E1,1.2380904E0],"tree_param":{"num_deleted":"0","num_feature":"7800","num_nodes":"9","size_leaf_vector":"1"}},{"base_weights":[8.813376E-3,-5.2124936E-2,8.204953E-1,1.6441199E0,-5.1043905E-2,-2.9987782E-2,1.6971267E0,1.747502E-1,-2.8684363E-2],"categories":[],"categories_nodes":[],"categories_segments":[],"categories_sizes":[],"default_left":[0,0,0,0,0,0,0,0,0],"id":76,"left_children":[1,-1,3,5,-1,-1,7,-1,-1],"loss_changes":[9.751316E1,0E0,9.89853E1,6.232544E0,0E0,0E0,5.9201813E0,0E0,0E0],"parents":[2147483647,0,0,2,2,3,3,6,6],"right_children":[2,-1,4,6,-1,-1,8,-1,-1],"split_conditions":[9.095387E0,-5.2124936E-2,1.0055633E1,9.005643E0,-5.1043905E-2,-2.9987782E-2,1.0320781E1,1.747502E-1,-2.8684363E-2],"split_indices":[6634,0,6436,451,0,0,929,0,0],"split_type":[0,0,0,0,0,0,0,0,0],"sum_hessian":[2.24653E2,1.3611919E2,8.85338E1,5.4544567E1,3.398923E1,1.3241658E0,5.32204E1,5.201878E1,1.2016232E0],"tree_param":{"num_deleted":"0","num_feature":"7800","num_nodes":"9","size_leaf_vector":"1"}},{"base_weights":[2.9712764E-3,-5.2160274E-2,1.0043004E0,1.6479273E0,-5.040731E-2,1.698644E0,-2.9317472E-2,-2.7055526E-2,1.7419645E-1],"categories":[],"categories_nodes":[],"categories_segments":[],"categories_sizes":[],"default_left":[0,0,0,0,0,0,0,0,0],"id":77,"left_children":[1,-1,3,5,-1,7,-1,-1,-1],"loss_changes":[1.1939145E2,0E0,7.668961E1,5.9128113E0,0E0,5.056488E0,0E0,0E0,0E0],"parents":[2147483647,0,0,2,2,3,3,5,5],"right_children":[2,-1,4,6,-1,8,-1,-1,-1],"split_conditions":[9.883755E0,-5.2160274E-2,1.0907463E1,1.0963836E1,-5.040731E-2,9.798283E0,-2.9317472E-2,-2.7055526E-2,1.7419645E-1],"split_indices":[3422,0,5555,323,0,22,0,0,0],"split_type":[0,0,0,0,0,0,0,0,0],"sum_hessian":[2.2529755E2,1.4815929E2,7.713826E1,5.4002663E1,2.3135597E1,5.2749348E1,1.253318E0,1.0225431E0,5.1726803E1],"tree_param":{"num_deleted":"0","num_feature":"7800","num_nodes":"9","size_leaf_vector":"1"}},{"base_weights":[-3.7028277E-3,-5.2188613E-2,1.2739686E0,1.6488538E0,-4.8270438E-2,-3.3182584E-2,1.7212337E0,1.769207E-1,-2.7365018E-2],"categories":[],"categories_nodes":[],"categories_segments":[],"categories_sizes":[],"default_left":[0,0,0,0,0,0,0,0,0],"id":78,"left_children":[1,-1,3,5,-1,-1,7,-1,-1],"loss_changes":[1.4784209E2,0E0,4.322879E1,8.216324E0,0E0,0E0,5.423218E0,0E0,0E0],"parents":[2147483647,0,0,2,2,3,3,6,6],"right_children":[2,-1,4,6,-1,-1,8,-1,-1],"split_conditions":[1.0653706E1,-5.2188613E-2,1.1686688E1,1.0470384E1,-4.8270438E-2,-3.3182584E-2,1.1784228E1,1.769207E-1,-2.7365018E-2],"split_indices":[2696,0,691,681,0,0,85,0,0],"split_type":[0,0,0,0,0,0,0,0,0],"sum_hessian":[2.2129926E2,1.5786551E2,6.3433746E1,5.2327995E1,1.1105749E1,1.7184367E0,5.060956E1,4.953155E1,1.0780096E0],"tree_param":{"num_deleted":"0","num_feature":"7800","num_nodes":"9","size_leaf_vector":"1"}},{"base_weights":[2.5764061E-2,-5.2227773E-2,1.7084441E0,-2.9540574E-2,1.7607321E-1],"categories":[],"categories_nodes":[],"categories_segments":[],"categories_sizes":[],"default_left":[0,0,0,0,0],"id":79,"left_children":[1,-1,3,-1,-1],"loss_changes":[2.0895407E2,0E0,6.352478E0,0E0,0E0],"parents":[2147483647,0,0,2,2],"right_children":[2,-1,4,-1,-1],"split_conditions":[1.1484439E1,-5.2227773E-2,1.1372687E1,-2.9540574E-2,1.7607321E-1],"split_indices":[3366,0,1084,0,0],"split_type":[0,0,0,0,0],"sum_hessian":[2.2461977E2,1.6995557E2,5.4664196E1,1.2718812E0,5.3392315E1],"tree_param":{"num_deleted":"0","num_feature":"7800","num_nodes":"5","size_leaf_vector":"1"}},{"base_weights":[-1.1319743E-2,1.4690596E0,-5.201515E-2,1.500765E-1,9.060062E-3],"categories":[],"categories_nodes":[],"categories_segments":[],"categories_sizes":[],"default_left":[0,0,0,0,0],"id":80,"left_children":[1,3,-1,-1,-1],"loss_changes":[1.6334785E2,2.288414E0,0E0,0E0,0E0],"parents":[2147483647,0,0,1,1],"right_children":[2,4,-1,-1,-1],"split_conditions":[5.392722E-1,4.682459E-1,-5.201515E-2,1.500765E-1,9.060062E-3],"split_indices":[4164,69,0,0,0],"split_type":[0,0,0,0,0],"sum_hessian":[2.1483899E2,5.4472183E1,1.603668E2,5.3160732E1,1.3114524E0],"tree_param":{"num_deleted":"0","num_feature":"7800","num_nodes":"5","size_leaf_vector":"1"}},{"base_weights":[4.8487214E-3,1.1476034E0,-5.1996615E-2,-4.7798544E-2,1.4307839E0,1.4672327E0,-2.7441008E-2,-2.7264798E-2,1.5046008E-1],"categories":[],"categories_nodes":[],"categories_segments":[],"categories_sizes":[],"default_left":[0,0,0,0,0,0,0,0,0],"id":81,"left_children":[1,3,-1,-1,5,7,-1,-1,-1],"loss_changes":[1.3323212E2,3.286772E1,0E0,0E0,4.1188507E0,4.2265625E0,0E0,0E0,0E0],"parents":[2147483647,0,0,1,1,4,4,5,5],"right_children":[2,4,-1,-1,6,8,-1,-1,-1],"split_conditions":[1.2690699E0,2.9941696E-1,-5.1996615E-2,-4.7798544E-2,1.4340347E0,3.3541363E-2,-2.7441008E-2,-2.7264798E-2,1.5046008E-1],"split_indices":[1818,6072,0,0,21,76,0,0,0],"split_type":[0,0,0,0,0,0,0,0,0],"sum_hessian":[2.2015681E2,6.891394E1,1.5124289E2,1.0121849E1,5.879209E1,5.7698326E1,1.0937622E0,1.0807706E0,5.6617558E1],"tree_param":{"num_deleted":"0","num_feature":"7800","num_nodes":"9","size_leaf_vector":"1"}},{"base_weights":[-5.7765815E-2,8.671993E-1,-5.195727E-2,-4.578851E-1,1.4440479E0,-4.992569E-2,2.0797713E-2,1.4907194E0,-2.8062154E-2,4.911459E-2,1.5074654E-1],"categories":[],"categories_nodes":[],"categories_segments":[],"categories_sizes":[],"default_left":[0,0,0,0,0,0,0,0,0,0,0],"id":82,"left_children":[1,3,-1,5,7,-1,-1,9,-1,-1,-1],"loss_changes":[9.032465E1,5.4503754E1,0E0,7.1328926E-1,4.3879776E0,0E0,0E0,6.601715E-2,0E0,0E0,0E0],"parents":[2147483647,0,0,1,1,3,3,4,4,7,7],"right_children":[2,4,-1,6,8,-1,-1,10,-1,-1,-1],"split_conditions":[2.0982666E0,1.1410064E0,-5.195727E-2,1.2495291E0,2.2175653E0,-4.992569E-2,2.0797713E-2,9.894124E-1,-2.8062154E-2,4.911459E-2,1.5074654E-1],"split_indices":[3287,5765,0,4055,127,0,0,74,0,0,0],"split_type":[0,0,0,0,0,0,0,0,0,0,0],"sum_hessian":[2.0940146E2,6.944014E1,1.3996132E2,2.1123463E1,4.8316673E1,2.0123356E1,1.0001082E0,4.7175697E1,1.1409776E0,1.2770519E0,4.5898643E1],"tree_param":{"num_deleted":"0","num_feature":"7800","num_nodes":"11","size_leaf_vector":"1"}},{"base_weights":[-8.9474017E-4,7.503153E-1,-5.1947292E-2,-5.075047E-2,1.4309282E0,1.4774734E0,-3.0139554E-2,7.558781E-3,1.5103061E-1],"categories":[],"categories_nodes":[],"categories_segments":[],"categories_sizes":[],"default_left":[0,0,0,0,0,0,0,0,0],"id":83,"left_children":[1,3,-1,-1,5,7,-1,-1,-1],"loss_changes":[8.543748E1,7.740526E1,0E0,0E0,5.1526947E0,2.5105133E0,0E0,0E0,0E0],"parents":[2147483647,0,0,1,1,4,4,5,5],"right_children":[2,4,-1,-1,6,8,-1,-1,-1],"split_conditions":[2.8927958E0,1.8435984E0,-5.1947292E-2,-5.075047E-2,3.0122066E0,1.7726207E0,-3.0139554E-2,7.558781E-3,1.5103061E-1],"split_indices":[4590,5282,0,0,913,115,0,0,0],"split_type":[0,0,0,0,0,0,0,0,0],"sum_hessian":[2.1731671E2,8.856907E1,1.2874763E2,3.1187239E1,5.7381836E1,5.6023674E1,1.3581625E0,1.3576419E0,5.466603E1],"tree_param":{"num_deleted":"0","num_feature":"7800","num_nodes":"9","size_leaf_vector":"1"}},{"base_weights":[2.505003E-2,6.459163E-1,-5.1919896E-2,-4.9132654E-1,1.438684E0,-5.116099E-2,1.845834E-2,1.4963087E0,-3.338037E-2,1.1175669E-2,1.5234907E-1],"categories":[],"categories_nodes":[],"categories_segments":[],"categories_sizes":[],"default_left":[0,0,0,0,0,0,0,0,0,0,0],"id":84,"left_children":[1,3,-1,5,7,-1,-1,9,-1,-1,-1],"loss_changes":[7.5175156E1,9.4383514E1,0E0,6.897774E-1,6.7789E0,0E0,0E0,2.0775146E0,0E0,0E0,0E0],"parents":[2147483647,0,0,1,1,3,3,4,4,7,7],"right_children":[2,4,-1,6,8,-1,-1,10,-1,-1,-1],"split_conditions":[3.7600346E0,2.7054088E0,-5.1919896E-2,2.8765528E0,3.8632243E0,-5.116099E-2,1.845834E-2,2.6830943E0,-3.338037E-2,1.1175669E-2,1.5234907E-1],"split_indices":[2131,4891,0,5561,1457,0,0,51,0,0,0],"split_type":[0,0,0,0,0,0,0,0,0,0,0],"sum_hessian":[2.204812E2,1.0290399E2,1.1757722E2,4.242485E1,6.0479145E1,4.1424812E1,1.0000381E0,5.8725746E1,1.753397E0,1.2291412E0,5.7496605E1],"tree_param":{"num_deleted":"0","num_feature":"7800","num_nodes":"11","size_leaf_vector":"1"}},{"base_weights":[4.573241E-3,5.0134003E-1,-5.1857647E-2,-4.9759546E-1,1.4455724E0,-5.144153E-2,2.1166554E-2,9.359958E-3,1.4746331E0,1.5031694E-1,1.0695777E-2],"categories":[],"categories_nodes":[],"categories_segments":[],"categories_sizes":[],"default_left":[0,0,0,0,0,0,0,0,0,0,0],"id":85,"left_children":[1,3,-1,5,7,-1,-1,-1,9,-1,-1],"loss_changes":[5.7360775E1,1.07500854E2,0E0,7.7402115E-1,2.1585922E0,0E0,0E0,0E0,2.0699234E0,0E0,0E0],"parents":[2147483647,0,0,1,1,3,3,4,4,8,8],"right_children":[2,4,-1,6,8,-1,-1,-1,10,-1,-1],"split_conditions":[4.528894E0,3.5451295E0,-5.1857647E-2,3.6983886E0,3.3968384E0,-5.144153E-2,2.1166554E-2,9.359958E-3,4.6317596E0,1.5031694E-1,1.0695777E-2],"split_indices":[7789,4398,0,4785,6,0,0,0,57,0,0],"split_type":[0,0,0,0,0,0,0,0,0,0,0],"sum_hessian":[2.1871696E2,1.12208725E2,1.0650825E2,5.475479E1,5.7453934E1,5.3754734E1,1.0000565E0,1.2978039E0,5.6156128E1,5.491135E1,1.2447797E0],"tree_param":{"num_deleted":"0","num_feature":"7800","num_nodes":"11","size_leaf_vector":"1"}},{"base_weights":[-2.3635596E-2,3.768411E-1,-5.1785238E-2,-5.1533192E-2,1.4410223E0,1.4790268E0,-2.6378179E-2,7.616849E-3,1.5148436E-1],"categories":[],"categories_nodes":[],"categories_segments":[],"categories_sizes":[],"default_left":[0,0,0,0,0,0,0,0,0],"id":86,"left_children":[1,3,-1,-1,5,7,-1,-1,-1],"loss_changes":[4.1864353E1,1.11707214E2,0E0,0E0,3.8604736E0,2.524826E0,0E0,0E0,0E0],"parents":[2147483647,0,0,1,1,4,4,5,5],"right_children":[2,4,-1,-1,6,8,-1,-1,-1],"split_conditions":[5.37501E0,4.363442E0,-5.1785238E-2,-5.1533192E-2,5.493317E0,4.266678E0,-2.6378179E-2,7.616849E-3,1.5148436E-1],"split_indices":[6759,3744,0,0,178,25,0,0,0],"split_type":[0,0,0,0,0,0,0,0,0],"sum_hessian":[2.0953313E2,1.15874504E2,9.365862E1,6.3311806E1,5.25627E1,5.1546043E1,1.0166576E0,1.3611114E0,5.0184933E1],"tree_param":{"num_deleted":"0","num_feature":"7800","num_nodes":"9","size_leaf_vector":"1"}},{"base_weights":[-9.6056415E-3,3.266913E-1,-5.1730912E-2,-5.1656973E-2,1.447973E0,1.4898354E0,-2.8267575E-2,8.501892E-3,1.5229557E-1],"categories":[],"categories_nodes":[],"categories_segments":[],"categories_sizes":[],"default_left":[0,0,0,0,0,0,0,0,0],"id":87,"left_children":[1,3,-1,-1,5,7,-1,-1,-1],"loss_changes":[3.6972076E1,1.2392888E2,0E0,0E0,4.4915466E0,2.4302826E0,0E0,0E0,0E0],"parents":[2147483647,0,0,1,1,4,4,5,5],"right_children":[2,4,-1,-1,6,8,-1,-1,-1],"split_conditions":[6.158945E0,5.136057E0,-5.1730912E-2,-5.1656973E-2,6.115164E0,5.0034776E0,-2.8267575E-2,8.501892E-3,1.5229557E-1],"split_indices":[27,6845,0,0,865,173,0,0,0],"split_type":[0,0,0,0,0,0,0,0,0],"sum_hessian":[2.1455151E2,1.2927666E2,8.527485E1,7.409371E1,5.518295E1,5.4015522E1,1.1674253E0,1.3263143E0,5.268921E1],"tree_param":{"num_deleted":"0","num_feature":"7800","num_nodes":"9","size_leaf_vector":"1"}},{"base_weights":[1.4646541E-2,-5.1750172E-2,3.4330407E-1,1.4102721E0,-5.1692724E-2,-3.066649E-2,1.4547011E0,1.4924632E-1,-2.7906407E-2],"categories":[],"categories_nodes":[],"categories_segments":[],"categories_sizes":[],"default_left":[0,0,0,0,0,0,0,0,0],"id":88,"left_children":[1,-1,3,5,-1,-1,7,-1,-1],"loss_changes":[3.926762E1,0E0,1.2809946E2,5.191681E0,0E0,0E0,4.3981476E0,0E0,0E0],"parents":[2147483647,0,0,2,2,3,3,6,6],"right_children":[2,-1,4,6,-1,-1,8,-1,-1],"split_conditions":[5.905854E0,-5.1750172E-2,6.881134E0,5.8072734E0,-5.1692724E-2,-3.066649E-2,7.120527E0,1.4924632E-1,-2.7906407E-2],"split_indices":[3919,0,6681,61,0,0,42,0,0],"split_type":[0,0,0,0,0,0,0,0,0],"sum_hessian":[2.225059E2,8.4733864E1,1.3777203E2,6.121099E1,7.656105E1,1.3951147E0,5.9815876E1,5.8677044E1,1.1388311E0],"tree_param":{"num_deleted":"0","num_feature":"7800","num_nodes":"9","size_leaf_vector":"1"}},{"base_weights":[8.233781E-3,-5.1817458E-2,4.180597E-1,1.416198E0,-5.1565826E-2,-2.9534096E-2,1.4581263E0,1.5015762E-1,-2.9541446E-2],"categories":[],"categories_nodes":[],"categories_segments":[],"categories_sizes":[],"default_left":[0,0,0,0,0,0,0,0,0],"id":89,"left_children":[1,-1,3,5,-1,-1,7,-1,-1],"loss_changes":[4.8325825E1,0E0,1.1810197E2,4.817917E0,0E0,0E0,5.003044E0,0E0,0E0],"parents":[2147483647,0,0,2,2,3,3,6,6],"right_children":[2,-1,4,6,-1,-1,8,-1,-1],"split_conditions":[6.65538E0,-5.1817458E-2,7.676253E0,6.696461E0,-5.1565826E-2,-2.9534096E-2,7.826002E0,1.5015762E-1,-2.9541446E-2],"split_indices":[4122,0,5882,150,0,0,96,0,0],"split_type":[0,0,0,0,0,0,0,0,0],"sum_hessian":[2.2200055E2,9.706249E1,1.2493806E2,6.0136166E1,6.480189E1,1.2934364E0,5.8842728E1,5.7560177E1,1.282551E0],"tree_param":{"num_deleted":"0","num_feature":"7800","num_nodes":"9","size_leaf_vector":"1"}},{"base_weights":[1.5647767E-2,-5.186227E-2,5.208832E-1,1.4361454E0,-5.1396716E-2,-3.0447109E-2,1.4824188E0,1.5202312E-1,-2.7374236E-2],"categories":[],"categories_nodes":[],"categories_segments":[],"categories_sizes":[],"default_left":[0,0,0,0,0,0,0,0,0],"id":90,"left_children":[1,-1,3,5,-1,-1,7,-1,-1],"loss_changes":[5.9303852E1,0E0,1.0767459E2,5.298218E0,0E0,0E0,4.319992E0,0E0,0E0],"parents":[2147483647,0,0,2,2,3,3,6,6],"right_children":[2,-1,4,6,-1,-1,8,-1,-1],"split_conditions":[7.4913273E0,-5.186227E-2,8.502326E0,7.3804684E0,-5.1396716E-2,-3.0447109E-2,8.582281E0,1.5202312E-1,-2.7374236E-2],"split_indices":[7223,0,4134,1224,0,0,263,0,0],"split_type":[0,0,0,0,0,0,0,0,0],"sum_hessian":[2.1769815E2,1.0579587E2,1.1190228E2,5.917649E1,5.2725792E1,1.3879408E0,5.778855E1,5.670203E1,1.0865197E0],"tree_param":{"num_deleted":"0","num_feature":"7800","num_nodes":"9","size_leaf_vector":"1"}},{"base_weights":[5.7570473E-3,-5.1899977E-2,6.1422354E-1,1.4332274E0,-5.1153746E-2,-3.0084318E-2,1.4789615E0,1.511565E-1,7.5592264E-3],"categories":[],"categories_nodes":[],"categories_segments":[],"categories_sizes":[],"default_left":[0,0,0,0,0,0,0,0,0],"id":91,"left_children":[1,-1,3,5,-1,-1,7,-1,-1],"loss_changes":[6.974692E1,0E0,9.399121E1,5.1092377E0,0E0,0E0,2.5153503E0,0E0,0E0],"parents":[2147483647,0,0,2,2,3,3,6,6],"right_children":[2,-1,4,6,-1,-1,8,-1,-1],"split_conditions":[8.326435E0,-5.1899977E-2,9.2026005E0,8.208777E0,-5.1153746E-2,-3.0084318E-2,9.491544E0,1.511565E-1,7.5592264E-3],"split_indices":[596,0,5640,391,0,0,107,0,0],"split_type":[0,0,0,0,0,0,0,0,0],"sum_hessian":[2.1644067E2,1.1629338E2,1.001473E2,5.7813908E1,4.2333393E1,1.3422593E0,5.647165E1,5.511412E1,1.3575258E0],"tree_param":{"num_deleted":"0","num_feature":"7800","num_nodes":"9","size_leaf_vector":"1"}},{"base_weights":[-2.1098884E-2,-5.1933624E-2,7.0013344E-1,1.4116865E0,-5.0822485E-2,-2.8720243E-2,1.4544787E0,1.4933148E-1,-2.6937464E-2],"categories":[],"categories_nodes":[],"categories_segments":[],"categories_sizes":[],"default_left":[0,0,0,0,0,0,0,0,0],"id":92,"left_children":[1,-1,3,5,-1,-1,7,-1,-1],"loss_changes":[7.803633E1,0E0,7.701572E1,4.497246E0,0E0,0E0,4.077774E0,0E0,0E0],"parents":[2147483647,0,0,2,2,3,3,6,6],"right_children":[2,-1,4,6,-1,-1,8,-1,-1],"split_conditions":[9.11456E0,-5.1933624E-2,1.0081557E1,9.010079E0,-5.0822485E-2,-2.8720243E-2,1.0133933E1,1.4933148E-1,-2.6937464E-2],"split_indices":[2223,0,3515,177,0,0,170,0,0],"split_type":[0,0,0,0,0,0,0,0,0],"sum_hessian":[2.1515091E2,1.2741251E2,8.7738396E1,5.5115093E1,3.2623306E1,1.2138195E0,5.3901276E1,5.2844498E1,1.056778E0],"tree_param":{"num_deleted":"0","num_feature":"7800","num_nodes":"9","size_leaf_vector":"1"}},{"base_weights":[-1.0558404E-2,-5.198952E-2,8.8386154E-1,1.4113799E0,-5.0091006E-2,1.4514531E0,-2.8534686E-2,-2.7279958E-2,1.4897765E-1],"categories":[],"categories_nodes":[],"categories_segments":[],"categories_sizes":[],"default_left":[0,0,0,0,0,0,0,0,0],"id":93,"left_children":[1,-1,3,5,-1,7,-1,-1,-1],"loss_changes":[1.00060776E2,0E0,5.89267E1,4.3561172E0,0E0,4.1598663E0,0E0,0E0,0E0],"parents":[2147483647,0,0,2,2,3,3,5,5],"right_children":[2,-1,4,6,-1,8,-1,-1,-1],"split_conditions":[9.90929E0,-5.198952E-2,1.092595E1,1.1120393E1,-5.0091006E-2,9.7817745E0,-2.8534686E-2,-2.7279958E-2,1.4897765E-1],"split_indices":[2155,0,2035,119,0,460,0,0,0],"split_type":[0,0,0,0,0,0,0,0,0],"sum_hessian":[2.1763431E2,1.3893503E2,7.869928E1,5.6975624E1,2.1723656E1,5.580225E1,1.1733737E0,1.0802702E0,5.4721977E1],"tree_param":{"num_deleted":"0","num_feature":"7800","num_nodes":"9","size_leaf_vector":"1"}},{"base_weights":[-2.778417E-4,-5.1997628E-2,1.1323587E0,1.4367002E0,-4.7961123E-2,-2.9678077E-2,1.481256E0,1.5207899E-1,-2.752669E-2],"categories":[],"categories_nodes":[],"categories_segments":[],"categories_sizes":[],"default_left":[0,0,0,0,0,0,0,0,0],"id":94,"left_children":[1,-1,3,5,-1,-1,7,-1,-1],"loss_changes":[1.2905368E2,0E0,3.4518944E1,4.939125E0,0E0,0E0,4.374275E0,0E0,0E0],"parents":[2147483647,0,0,2,2,3,3,6,6],"right_children":[2,-1,4,6,-1,-1,8,-1,-1],"split_conditions":[1.0745538E1,-5.1997628E-2,1.1686688E1,1.0602009E1,-4.7961123E-2,-2.9678077E-2,1.1784228E1,1.5207899E-1,-2.752669E-2],"split_indices":[2623,0,691,574,0,0,85,0,0],"split_type":[0,0,0,0,0,0,0,0,0],"sum_hessian":[2.172441E2,1.4928647E2,6.795762E1,5.72563E1,1.0701322E1,1.2929281E0,5.596337E1,5.4862785E1,1.1005865E0],"tree_param":{"num_deleted":"0","num_feature":"7800","num_nodes":"9","size_leaf_vector":"1"}},{"base_weights":[2.1890175E-2,-5.1490366E-1,1.4723818E0,-5.2040912E-2,1.8578604E-2,-2.8367052E-2,1.5126018E-1],"categories":[],"categories_nodes":[],"categories_segments":[],"categories_sizes":[],"default_left":[0,0,0,0,0,0,0],"id":95,"left_children":[1,3,5,-1,-1,-1,-1],"loss_changes":[1.7282076E2,7.2174835E-1,4.6632843E0,0E0,0E0,0E0,0E0],"parents":[2147483647,0,0,1,1,2,2],"right_children":[2,4,6,-1,-1,-1,-1],"split_conditions":[1.1493698E1,1.1728611E1,1.1333259E1,-5.2040912E-2,1.8578604E-2,-2.8367052E-2,1.5126018E-1],"split_indices":[6080,4187,1019,0,0,0,0],"split_type":[0,0,0,0,0,0,0],"sum_hessian":[2.1998547E2,1.6103508E2,5.8950394E1,1.6003496E2,1.0001204E0,1.1844163E0,5.7765976E1],"tree_param":{"num_deleted":"0","num_feature":"7800","num_nodes":"7","size_leaf_vector":"1"}},{"base_weights":[-1.4334229E-2,1.2829186E0,-5.182912E-2,1.3178943E-1,-2.784187E-2],"categories":[],"categories_nodes":[],"categories_segments":[],"categories_sizes":[],"default_left":[0,0,0,0,0],"id":96,"left_children":[1,3,-1,-1,-1],"loss_changes":[1.3687202E2,3.5659103E0,0E0,0E0,0E0],"parents":[2147483647,0,0,1,1],"right_children":[2,4,-1,-1,-1],"split_conditions":[5.26081E-1,7.103693E-1,-5.182912E-2,1.3178943E-1,-2.784187E-2],"split_indices":[4895,44,0,0,0],"split_type":[0,0,0,0,0],"sum_hessian":[2.0734435E2,5.7580006E1,1.4976434E2,5.6470913E1,1.1090912E0],"tree_param":{"num_deleted":"0","num_feature":"7800","num_nodes":"5","size_leaf_vector":"1"}},{"base_weights":[1.6039297E-2,1.032444E0,-5.1804956E-2,-4.74818E-2,1.270212E0,1.2995632E0,-2.6450971E-2,5.727193E-3,1.3268797E-1],"categories":[],"categories_nodes":[],"categories_segments":[],"categories_sizes":[],"default_left":[0,0,0,0,0,0,0,0,0],"id":97,"left_children":[1,3,-1,-1,5,7,-1,-1,-1],"loss_changes":[1.1521137E2,2.6801216E1,0E0,0E0,3.2002487E0,2.0412903E0,0E0,0E0,0E0],"parents":[2147483647,0,0,1,1,4,4,5,5],"right_children":[2,4,-1,-1,6,8,-1,-1,-1],"split_conditions":[1.2929907E0,2.784678E-1,-5.1804956E-2,-4.74818E-2,1.4184594E0,1.8124914E-1,-2.6450971E-2,5.727193E-3,1.3268797E-1],"split_indices":[1630,7132,0,0,242,39,0,0,0],"split_type":[0,0,0,0,0,0,0,0,0],"sum_hessian":[2.1024883E2,7.2101685E1,1.3814714E2,9.68833E0,6.2413353E1,6.1392467E1,1.0208873E0,1.3875216E0,6.0004944E1],"tree_param":{"num_deleted":"0","num_feature":"7800","num_nodes":"9","size_leaf_vector":"1"}},{"base_weights":[-2.8410211E-2,8.0525166E-1,-5.1771164E-2,-4.9780037E-2,1.2696743E0,-2.7178973E-2,1.3042591E0,1.3345794E-1,5.8031008E-3],"categories":[],"categories_nodes":[],"categories_segments":[],"categories_sizes":[],"default_left":[0,0,0,0,0,0,0,0,0],"id":98,"left_children":[1,3,-1,-1,5,-1,7,-1,-1],"loss_changes":[8.505972E1,4.731265E1,0E0,0E0,3.4012146E0,0E0,2.0411453E0,0E0,0E0],"parents":[2147483647,0,0,1,1,4,4,6,6],"right_children":[2,4,-1,-1,6,-1,8,-1,-1],"split_conditions":[2.0982666E0,1.1073766E0,-5.1771164E-2,-4.9780037E-2,1.0681984E0,-2.7178973E-2,2.2065396E0,1.3345794E-1,5.8031008E-3],"split_indices":[3287,6532,0,0,215,0,123,0,0],"split_type":[0,0,0,0,0,0,0,0,0],"sum_hessian":[2.065027E2,7.613674E1,1.3036597E2,1.9986847E1,5.614989E1,1.0816463E0,5.5068245E1,5.3691063E1,1.3771816E0],"tree_param":{"num_deleted":"0","num_feature":"7800","num_nodes":"9","size_leaf_vector":"1"}},{"base_weights":[1.6305408E-2,7.126533E-1,-5.1754273E-2,-5.049765E-2,1.2699594E0,1.3037413E0,-2.8448937E-2,-2.6469171E-2,1.333775E-1],"categories":[],"categories_nodes":[],"categories_segments":[],"categories_sizes":[],"default_left":[0,0,0,0,0,0,0,0,0],"id":99,"left_children":[1,3,-1,-1,5,7,-1,-1,-1],"loss_changes":[8.005969E1,6.405406E1,0E0,0E0,3.752205E0,3.3301392E0,0E0,0E0,0E0],"parents":[2147483647,0,0,1,1,4,4,5,5],"right_children":[2,4,-1,-1,6,8,-1,-1,-1],"split_conditions":[2.923621E0,1.8546641E0,-5.1754273E-2,-5.049765E-2,2.9243796E0,1.8253424E0,-2.8448937E-2,-2.6469171E-2,1.333775E-1],"split_indices":[7276,1956,0,0,1678,444,0,0,0],"split_type":[0,0,0,0,0,0,0,0,0],"sum_hessian":[2.1337027E2,9.244748E1,1.2092279E2,2.9056755E1,6.339072E1,6.2200245E1,1.190476E0,1.0218863E0,6.117836E1],"tree_param":{"num_deleted":"0","num_feature":"7800","num_nodes":"9","size_leaf_vector":"1"}},{"base_weights":[2.8718922E-2,5.960255E-1,-5.1727988E-2,-5.096088E-2,1.2599434E0,1.2912182E0,-2.802587E-2,-2.7292466E-2,1.3217339E-1],"categories":[],"categories_nodes":[],"categories_segments":[],"categories_sizes":[],"default_left":[0,0,0,0,0,0,0,0,0],"id":100,"left_children":[1,3,-1,-1,5,7,-1,-1,-1],"loss_changes":[6.751287E1,7.909059E1,0E0,0E0,3.5922165E0,3.5064774E0,0E0,0E0,0E0],"parents":[2147483647,0,0,1,1,4,4,5,5],"right_children":[2,4,-1,-1,6,8,-1,-1,-1],"split_conditions":[3.6999583E0,2.6916592E0,-5.1727988E-2,-5.096088E-2,3.8431747E0,2.5573354E0,-2.802587E-2,-2.7292466E-2,1.3217339E-1],"split_indices":[5097,3656,0,0,38,105,0,0,0],"split_type":[0,0,0,0,0,0,0,0,0],"sum_hessian":[2.1596478E2,1.0587076E2,1.10094025E2,3.9808826E1,6.6061935E1,6.490564E1,1.1562961E0,1.0900342E0,6.38156E1],"tree_param":{"num_deleted":"0","num_feature":"7800","num_nodes":"9","size_leaf_vector":"1"}},{"base_weights":[-9.849094E-3,4.563275E-1,-5.167404E-2,-5.1215746E-2,1.2629867E0,-2.811696E-2,1.2981038E0,1.326074E-1,6.4474903E-3],"categories":[],"categories_nodes":[],"categories_segments":[],"categories_sizes":[],"default_left":[0,0,0,0,0,0,0,0,0],"id":101,"left_children":[1,3,-1,-1,5,-1,7,-1,-1],"loss_changes":[4.9903652E1,8.660083E1,0E0,0E0,3.635643E0,0E0,1.9555206E0,0E0,0E0],"parents":[2147483647,0,0,1,1,4,4,6,6],"right_children":[2,4,-1,-1,6,-1,8,-1,-1],"split_conditions":[4.5550847E0,3.493821E0,-5.167404E-2,-5.1215746E-2,3.3043926E0,-2.811696E-2,4.578828E0,1.326074E-1,6.4474903E-3],"split_indices":[7510,6765,0,0,82,0,71,0,0],"split_type":[0,0,0,0,0,0,0,0,0],"sum_hessian":[2.0918904E2,1.0902289E2,1.0016616E2,4.9707973E1,5.9314915E1,1.1631413E0,5.815177E1,5.6789246E1,1.3625257E0],"tree_param":{"num_deleted":"0","num_feature":"7800","num_nodes":"9","size_leaf_vector":"1"}},{"base_weights":[-4.4648647E-2,3.407144E-1,-5.161683E-2,-5.1326275E-2,1.2784983E0,-2.6857838E-2,1.3141699E0,1.3350107E-1,1.4754697E-2],"categories":[],"categories_nodes":[],"categories_segments":[],"categories_sizes":[],"default_left":[0,0,0,0,0,0,0,0,0],"id":102,"left_children":[1,3,-1,-1,5,-1,7,-1,-1],"loss_changes":[3.7533493E1,9.1740425E1,0E0,0E0,3.3603058E0,0E0,1.1022263E0,0E0,0E0],"parents":[2147483647,0,0,1,1,4,4,6,6],"right_children":[2,4,-1,-1,6,-1,8,-1,-1],"split_conditions":[5.26218E0,4.3456388E0,-5.161683E-2,-5.1326275E-2,4.1440268E0,-2.6857838E-2,5.4117026E0,1.3350107E-1,1.4754697E-2],"split_indices":[2930,1352,0,0,92,0,6,0,0],"split_type":[0,0,0,0,0,0,0,0,0],"sum_hessian":[2.045935E2,1.1273499E2,9.185851E1,5.9240925E1,5.349407E1,1.0584866E0,5.2435585E1,5.13735E1,1.0620818E0],"tree_param":{"num_deleted":"0","num_feature":"7800","num_nodes":"9","size_leaf_vector":"1"}},{"base_weights":[-1.9414391E-2,3.0357993E-1,-5.154687E-2,-5.1443513E-2,1.2701867E0,1.303838E0,-2.7158815E-2,6.4514517E-3,1.3324498E-1],"categories":[],"categories_nodes":[],"categories_segments":[],"categories_sizes":[],"default_left":[0,0,0,0,0,0,0,0,0],"id":103,"left_children":[1,3,-1,-1,5,7,-1,-1,-1],"loss_changes":[3.365729E1,1.0128049E2,0E0,0E0,3.3955765E0,1.9544373E0,0E0,0E0,0E0],"parents":[2147483647,0,0,1,1,4,4,5,5],"right_children":[2,4,-1,-1,6,8,-1,-1,-1],"split_conditions":[6.0564885E0,5.1079297E0,-5.154687E-2,-5.1443513E-2,6.266482E0,4.8729773E0,-2.7158815E-2,6.4514517E-3,1.3324498E-1],"split_indices":[653,5375,0,0,93,389,0,0,0],"split_type":[0,0,0,0,0,0,0,0,0],"sum_hessian":[2.0808896E2,1.2626344E2,8.1825516E1,6.864159E1,5.7621857E1,5.6542076E1,1.0797831E0,1.3493519E0,5.5192722E1],"tree_param":{"num_deleted":"0","num_feature":"7800","num_nodes":"9","size_leaf_vector":"1"}},{"base_weights":[3.0340197E-2,-5.1544666E-2,3.4565538E-1,1.2578723E0,-5.147011E-2,1.2949313E0,-3.0151611E-2,8.982646E-3,1.3172723E-1],"categories":[],"categories_nodes":[],"categories_segments":[],"categories_sizes":[],"default_left":[0,0,0,0,0,0,0,0,0],"id":104,"left_children":[1,-1,3,5,-1,7,-1,-1,-1],"loss_changes":[3.7159657E1,0E0,1.080132E2,4.2444077E0,0E0,1.6405792E0,0E0,0E0,0E0],"parents":[2147483647,0,0,2,2,3,3,5,5],"right_children":[2,-1,4,6,-1,8,-1,-1,-1],"split_conditions":[5.9156766E0,-5.1544666E-2,6.9508195E0,7.147073E0,-5.147011E-2,5.816187E0,-3.0151611E-2,8.982646E-3,1.3172723E-1],"split_indices":[4600,0,4793,1695,0,80,0,0,0],"split_type":[0,0,0,0,0,0,0,0,0],"sum_hessian":[2.138901E2,7.808908E1,1.3580103E2,6.5689674E1,7.011134E1,6.4330444E1,1.3592268E0,1.2622776E0,6.306817E1],"tree_param":{"num_deleted":"0","num_feature":"7800","num_nodes":"9","size_leaf_vector":"1"}},{"base_weights":[-2.4408489E-3,-5.1614415E-2,3.8180214E-1,1.2462534E0,-5.132593E-2,-2.9688159E-2,1.2844923E0,1.3152981E-1,-2.6837388E-2],"categories":[],"categories_nodes":[],"categories_segments":[],"categories_sizes":[],"default_left":[0,0,0,0,0,0,0,0,0],"id":105,"left_children":[1,-1,3,5,-1,-1,7,-1,-1],"loss_changes":[4.197456E1,0E0,9.477142E1,4.0504E0,0E0,0E0,3.2645264E0,0E0,0E0],"parents":[2147483647,0,0,2,2,3,3,6,6],"right_children":[2,-1,4,6,-1,-1,8,-1,-1],"split_conditions":[6.6646986E0,-5.1614415E-2,7.6408663E0,6.6268506E0,-5.132593E-2,-2.9688159E-2,7.834756E0,1.3152981E-1,-2.6837388E-2],"split_indices":[15,0,3159,479,0,0,59,0,0],"split_type":[0,0,0,0,0,0,0,0,0],"sum_hessian":[2.1065285E2,8.9994225E1,1.20658615E2,6.117926E1,5.9479355E1,1.3158096E0,5.9863453E1,5.884899E1,1.0144598E0],"tree_param":{"num_deleted":"0","num_feature":"7800","num_nodes":"9","size_leaf_vector":"1"}},{"base_weights":[1.591107E-3,-5.1671248E-2,4.7387388E-1,1.2766801E0,-4.9503958E-1,-2.807637E-2,1.3116943E0,1.6800005E-2,-5.1170763E-2,1.3314632E-1,1.3583685E-2],"categories":[],"categories_nodes":[],"categories_segments":[],"categories_sizes":[],"default_left":[0,0,0,0,0,0,0,0,0,0,0],"id":106,"left_children":[1,-1,3,5,7,-1,9,-1,-1,-1,-1],"loss_changes":[5.1774353E1,0E0,8.671336E1,3.6838608E0,6.481142E-1,0E0,1.2054749E0,0E0,0E0,0E0,0E0],"parents":[2147483647,0,0,2,2,3,3,4,4,6,6],"right_children":[2,-1,4,6,8,-1,10,-1,-1,-1,-1],